digraph Tree {
node [shape=box] ;
0 [label="X[3] <= 0.264\ngini = 0.406\nsamples = 25735\nvalue = [7284, 18451]"] ;
1 [label="X[20] <= 0.905\ngini = 0.408\nsamples = 8165\nvalue = [5829, 2336]"] ;
0 -> 1 [labeldistance=2.5, labelangle=45, headlabel="True"] ;
2 [label="X[25] <= 0.786\ngini = 0.262\nsamples = 6824\nvalue = [5768, 1056]"] ;
1 -> 2 ;
3 [label="X[3] <= 0.189\ngini = 0.116\nsamples = 5778\nvalue = [5421, 357]"] ;
2 -> 3 ;
4 [label="X[24] <= -0.5\ngini = 0.071\nsamples = 5122\nvalue = [4932, 190]"] ;
3 -> 4 ;
5 [label="X[1] <= 0.171\ngini = 0.108\nsamples = 3049\nvalue = [2874, 175]"] ;
4 -> 5 ;
6 [label="X[17] <= 0.745\ngini = 0.086\nsamples = 2758\nvalue = [2634, 124]"] ;
5 -> 6 ;
7 [label="X[15] <= 0.554\ngini = 0.083\nsamples = 2752\nvalue = [2632, 120]"] ;
6 -> 7 ;
8 [label="X[20] <= -0.45\ngini = 0.068\nsamples = 2522\nvalue = [2433, 89]"] ;
7 -> 8 ;
9 [label="X[5] <= 0.382\ngini = 0.098\nsamples = 1701\nvalue = [1613, 88]"] ;
8 -> 9 ;
10 [label="X[4] <= 0.536\ngini = 0.144\nsamples = 1011\nvalue = [932, 79]"] ;
9 -> 10 ;
11 [label="X[3] <= 0.109\ngini = 0.138\nsamples = 1006\nvalue = [931, 75]"] ;
10 -> 11 ;
12 [label="X[0] <= 0.253\ngini = 0.129\nsamples = 970\nvalue = [903, 67]"] ;
11 -> 12 ;
13 [label="X[3] <= 0.029\ngini = 0.154\nsamples = 751\nvalue = [688, 63]"] ;
12 -> 13 ;
14 [label="X[0] <= 0.251\ngini = 0.13\nsamples = 574\nvalue = [534, 40]"] ;
13 -> 14 ;
15 [label="X[0] <= 0.13\ngini = 0.127\nsamples = 573\nvalue = [534, 39]"] ;
14 -> 15 ;
16 [label="X[3] <= 0.026\ngini = 0.06\nsamples = 194\nvalue = [188, 6]"] ;
15 -> 16 ;
17 [label="X[2] <= 0.175\ngini = 0.051\nsamples = 191\nvalue = [186, 5]"] ;
16 -> 17 ;
18 [label="X[2] <= 0.056\ngini = 0.034\nsamples = 172\nvalue = [169, 3]"] ;
17 -> 18 ;
19 [label="X[2] <= 0.051\ngini = 0.08\nsamples = 48\nvalue = [46, 2]"] ;
18 -> 19 ;
20 [label="X[0] <= 0.023\ngini = 0.043\nsamples = 46\nvalue = [45, 1]"] ;
19 -> 20 ;
21 [label="X[2] <= 0.025\ngini = 0.08\nsamples = 24\nvalue = [23, 1]"] ;
20 -> 21 ;
22 [label="gini = 0.083\nsamples = 23\nvalue = [22, 1]"] ;
21 -> 22 ;
23 [label="gini = 0.0\nsamples = 1\nvalue = [1, 0]"] ;
21 -> 23 ;
24 [label="gini = 0.0\nsamples = 22\nvalue = [22, 0]"] ;
20 -> 24 ;
25 [label="X[0] <= 0.099\ngini = 0.5\nsamples = 2\nvalue = [1, 1]"] ;
19 -> 25 ;
26 [label="gini = 0.0\nsamples = 1\nvalue = [0, 1]"] ;
25 -> 26 ;
27 [label="gini = 0.0\nsamples = 1\nvalue = [1, 0]"] ;
25 -> 27 ;
28 [label="X[2] <= 0.132\ngini = 0.016\nsamples = 124\nvalue = [123, 1]"] ;
18 -> 28 ;
29 [label="gini = 0.0\nsamples = 94\nvalue = [94, 0]"] ;
28 -> 29 ;
30 [label="X[2] <= 0.135\ngini = 0.064\nsamples = 30\nvalue = [29, 1]"] ;
28 -> 30 ;
31 [label="X[0] <= 0.093\ngini = 0.32\nsamples = 5\nvalue = [4, 1]"] ;
30 -> 31 ;
32 [label="gini = 0.0\nsamples = 3\nvalue = [3, 0]"] ;
31 -> 32 ;
33 [label="X[0] <= 0.111\ngini = 0.5\nsamples = 2\nvalue = [1, 1]"] ;
31 -> 33 ;
34 [label="gini = 0.0\nsamples = 1\nvalue = [0, 1]"] ;
33 -> 34 ;
35 [label="gini = 0.0\nsamples = 1\nvalue = [1, 0]"] ;
33 -> 35 ;
36 [label="gini = 0.0\nsamples = 25\nvalue = [25, 0]"] ;
30 -> 36 ;
37 [label="X[0] <= 0.098\ngini = 0.188\nsamples = 19\nvalue = [17, 2]"] ;
17 -> 37 ;
38 [label="X[0] <= 0.086\ngini = 0.444\nsamples = 6\nvalue = [4, 2]"] ;
37 -> 38 ;
39 [label="gini = 0.0\nsamples = 3\nvalue = [3, 0]"] ;
38 -> 39 ;
40 [label="X[2] <= 0.178\ngini = 0.444\nsamples = 3\nvalue = [1, 2]"] ;
38 -> 40 ;
41 [label="gini = 0.0\nsamples = 1\nvalue = [0, 1]"] ;
40 -> 41 ;
42 [label="X[0] <= 0.094\ngini = 0.5\nsamples = 2\nvalue = [1, 1]"] ;
40 -> 42 ;
43 [label="gini = 0.0\nsamples = 1\nvalue = [1, 0]"] ;
42 -> 43 ;
44 [label="gini = 0.0\nsamples = 1\nvalue = [0, 1]"] ;
42 -> 44 ;
45 [label="gini = 0.0\nsamples = 13\nvalue = [13, 0]"] ;
37 -> 45 ;
46 [label="X[1] <= 0.019\ngini = 0.444\nsamples = 3\nvalue = [2, 1]"] ;
16 -> 46 ;
47 [label="gini = 0.0\nsamples = 1\nvalue = [0, 1]"] ;
46 -> 47 ;
48 [label="gini = 0.0\nsamples = 2\nvalue = [2, 0]"] ;
46 -> 48 ;
49 [label="X[0] <= 0.131\ngini = 0.159\nsamples = 379\nvalue = [346, 33]"] ;
15 -> 49 ;
50 [label="gini = 0.0\nsamples = 1\nvalue = [0, 1]"] ;
49 -> 50 ;
51 [label="X[0] <= 0.204\ngini = 0.155\nsamples = 378\nvalue = [346, 32]"] ;
49 -> 51 ;
52 [label="X[0] <= 0.183\ngini = 0.195\nsamples = 247\nvalue = [220, 27]"] ;
51 -> 52 ;
53 [label="X[2] <= 0.255\ngini = 0.133\nsamples = 182\nvalue = [169, 13]"] ;
52 -> 53 ;
54 [label="X[2] <= 0.128\ngini = 0.118\nsamples = 175\nvalue = [164, 11]"] ;
53 -> 54 ;
55 [label="X[2] <= 0.119\ngini = 0.229\nsamples = 53\nvalue = [46, 7]"] ;
54 -> 55 ;
56 [label="X[2] <= 0.087\ngini = 0.136\nsamples = 41\nvalue = [38, 3]"] ;
55 -> 56 ;
57 [label="gini = 0.0\nsamples = 19\nvalue = [19, 0]"] ;
56 -> 57 ;
58 [label="X[2] <= 0.106\ngini = 0.236\nsamples = 22\nvalue = [19, 3]"] ;
56 -> 58 ;
59 [label="X[0] <= 0.148\ngini = 0.42\nsamples = 10\nvalue = [7, 3]"] ;
58 -> 59 ;
60 [label="gini = 0.0\nsamples = 1\nvalue = [0, 1]"] ;
59 -> 60 ;
61 [label="X[0] <= 0.16\ngini = 0.346\nsamples = 9\nvalue = [7, 2]"] ;
59 -> 61 ;
62 [label="gini = 0.0\nsamples = 3\nvalue = [3, 0]"] ;
61 -> 62 ;
63 [label="X[0] <= 0.174\ngini = 0.444\nsamples = 6\nvalue = [4, 2]"] ;
61 -> 63 ;
64 [label="X[0] <= 0.164\ngini = 0.444\nsamples = 3\nvalue = [1, 2]"] ;
63 -> 64 ;
65 [label="gini = 0.0\nsamples = 1\nvalue = [0, 1]"] ;
64 -> 65 ;
66 [label="X[2] <= 0.103\ngini = 0.5\nsamples = 2\nvalue = [1, 1]"] ;
64 -> 66 ;
67 [label="gini = 0.0\nsamples = 1\nvalue = [0, 1]"] ;
66 -> 67 ;
68 [label="gini = 0.0\nsamples = 1\nvalue = [1, 0]"] ;
66 -> 68 ;
69 [label="gini = 0.0\nsamples = 3\nvalue = [3, 0]"] ;
63 -> 69 ;
70 [label="gini = 0.0\nsamples = 12\nvalue = [12, 0]"] ;
58 -> 70 ;
71 [label="X[2] <= 0.122\ngini = 0.444\nsamples = 12\nvalue = [8, 4]"] ;
55 -> 71 ;
72 [label="gini = 0.0\nsamples = 2\nvalue = [0, 2]"] ;
71 -> 72 ;
73 [label="X[0] <= 0.16\ngini = 0.32\nsamples = 10\nvalue = [8, 2]"] ;
71 -> 73 ;
74 [label="gini = 0.0\nsamples = 5\nvalue = [5, 0]"] ;
73 -> 74 ;
75 [label="X[7] <= -0.5\ngini = 0.48\nsamples = 5\nvalue = [3, 2]"] ;
73 -> 75 ;
76 [label="X[0] <= 0.17\ngini = 0.444\nsamples = 3\nvalue = [1, 2]"] ;
75 -> 76 ;
77 [label="gini = 0.0\nsamples = 2\nvalue = [0, 2]"] ;
76 -> 77 ;
78 [label="gini = 0.0\nsamples = 1\nvalue = [1, 0]"] ;
76 -> 78 ;
79 [label="gini = 0.0\nsamples = 2\nvalue = [2, 0]"] ;
75 -> 79 ;
80 [label="X[0] <= 0.174\ngini = 0.063\nsamples = 122\nvalue = [118, 4]"] ;
54 -> 80 ;
81 [label="X[1] <= 0.017\ngini = 0.039\nsamples = 100\nvalue = [98, 2]"] ;
80 -> 81 ;
82 [label="gini = 0.0\nsamples = 83\nvalue = [83, 0]"] ;
81 -> 82 ;
83 [label="X[1] <= 0.017\ngini = 0.208\nsamples = 17\nvalue = [15, 2]"] ;
81 -> 83 ;
84 [label="gini = 0.0\nsamples = 2\nvalue = [0, 2]"] ;
83 -> 84 ;
85 [label="gini = 0.0\nsamples = 15\nvalue = [15, 0]"] ;
83 -> 85 ;
86 [label="X[0] <= 0.174\ngini = 0.165\nsamples = 22\nvalue = [20, 2]"] ;
80 -> 86 ;
87 [label="gini = 0.0\nsamples = 1\nvalue = [0, 1]"] ;
86 -> 87 ;
88 [label="X[0] <= 0.178\ngini = 0.091\nsamples = 21\nvalue = [20, 1]"] ;
86 -> 88 ;
89 [label="X[0] <= 0.178\ngini = 0.219\nsamples = 8\nvalue = [7, 1]"] ;
88 -> 89 ;
90 [label="gini = 0.0\nsamples = 7\nvalue = [7, 0]"] ;
89 -> 90 ;
91 [label="gini = 0.0\nsamples = 1\nvalue = [0, 1]"] ;
89 -> 91 ;
92 [label="gini = 0.0\nsamples = 13\nvalue = [13, 0]"] ;
88 -> 92 ;
93 [label="X[4] <= -0.433\ngini = 0.408\nsamples = 7\nvalue = [5, 2]"] ;
53 -> 93 ;
94 [label="X[3] <= 0.025\ngini = 0.278\nsamples = 6\nvalue = [5, 1]"] ;
93 -> 94 ;
95 [label="gini = 0.0\nsamples = 5\nvalue = [5, 0]"] ;
94 -> 95 ;
96 [label="gini = 0.0\nsamples = 1\nvalue = [0, 1]"] ;
94 -> 96 ;
97 [label="gini = 0.0\nsamples = 1\nvalue = [0, 1]"] ;
93 -> 97 ;
98 [label="X[0] <= 0.183\ngini = 0.338\nsamples = 65\nvalue = [51, 14]"] ;
52 -> 98 ;
99 [label="X[2] <= 0.189\ngini = 0.444\nsamples = 6\nvalue = [2, 4]"] ;
98 -> 99 ;
100 [label="X[2] <= 0.162\ngini = 0.444\nsamples = 3\nvalue = [2, 1]"] ;
99 -> 100 ;
101 [label="gini = 0.0\nsamples = 1\nvalue = [1, 0]"] ;
100 -> 101 ;
102 [label="X[2] <= 0.177\ngini = 0.5\nsamples = 2\nvalue = [1, 1]"] ;
100 -> 102 ;
103 [label="gini = 0.0\nsamples = 1\nvalue = [0, 1]"] ;
102 -> 103 ;
104 [label="gini = 0.0\nsamples = 1\nvalue = [1, 0]"] ;
102 -> 104 ;
105 [label="gini = 0.0\nsamples = 3\nvalue = [0, 3]"] ;
99 -> 105 ;
106 [label="X[0] <= 0.204\ngini = 0.282\nsamples = 59\nvalue = [49, 10]"] ;
98 -> 106 ;
107 [label="X[7] <= -0.5\ngini = 0.262\nsamples = 58\nvalue = [49, 9]"] ;
106 -> 107 ;
108 [label="X[0] <= 0.198\ngini = 0.32\nsamples = 45\nvalue = [36, 9]"] ;
107 -> 108 ;
109 [label="X[0] <= 0.191\ngini = 0.239\nsamples = 36\nvalue = [31, 5]"] ;
108 -> 109 ;
110 [label="X[2] <= 0.104\ngini = 0.34\nsamples = 23\nvalue = [18, 5]"] ;
109 -> 110 ;
111 [label="X[0] <= 0.186\ngini = 0.444\nsamples = 3\nvalue = [1, 2]"] ;
110 -> 111 ;
112 [label="gini = 0.0\nsamples = 1\nvalue = [1, 0]"] ;
111 -> 112 ;
113 [label="gini = 0.0\nsamples = 2\nvalue = [0, 2]"] ;
111 -> 113 ;
114 [label="X[1] <= 0.009\ngini = 0.255\nsamples = 20\nvalue = [17, 3]"] ;
110 -> 114 ;
115 [label="X[0] <= 0.185\ngini = 0.32\nsamples = 15\nvalue = [12, 3]"] ;
114 -> 115 ;
116 [label="X[0] <= 0.184\ngini = 0.5\nsamples = 2\nvalue = [1, 1]"] ;
115 -> 116 ;
117 [label="gini = 0.0\nsamples = 1\nvalue = [1, 0]"] ;
116 -> 117 ;
118 [label="gini = 0.0\nsamples = 1\nvalue = [0, 1]"] ;
116 -> 118 ;
119 [label="X[0] <= 0.187\ngini = 0.26\nsamples = 13\nvalue = [11, 2]"] ;
115 -> 119 ;
120 [label="gini = 0.0\nsamples = 4\nvalue = [4, 0]"] ;
119 -> 120 ;
121 [label="X[2] <= 0.154\ngini = 0.346\nsamples = 9\nvalue = [7, 2]"] ;
119 -> 121 ;
122 [label="X[0] <= 0.19\ngini = 0.444\nsamples = 6\nvalue = [4, 2]"] ;
121 -> 122 ;
123 [label="X[2] <= 0.134\ngini = 0.444\nsamples = 3\nvalue = [1, 2]"] ;
122 -> 123 ;
124 [label="gini = 0.0\nsamples = 1\nvalue = [0, 1]"] ;
123 -> 124 ;
125 [label="X[2] <= 0.146\ngini = 0.5\nsamples = 2\nvalue = [1, 1]"] ;
123 -> 125 ;
126 [label="gini = 0.0\nsamples = 1\nvalue = [1, 0]"] ;
125 -> 126 ;
127 [label="gini = 0.0\nsamples = 1\nvalue = [0, 1]"] ;
125 -> 127 ;
128 [label="gini = 0.0\nsamples = 3\nvalue = [3, 0]"] ;
122 -> 128 ;
129 [label="gini = 0.0\nsamples = 3\nvalue = [3, 0]"] ;
121 -> 129 ;
130 [label="gini = 0.0\nsamples = 5\nvalue = [5, 0]"] ;
114 -> 130 ;
131 [label="gini = 0.0\nsamples = 13\nvalue = [13, 0]"] ;
109 -> 131 ;
132 [label="X[2] <= 0.217\ngini = 0.494\nsamples = 9\nvalue = [5, 4]"] ;
108 -> 132 ;
133 [label="X[2] <= 0.198\ngini = 0.444\nsamples = 6\nvalue = [2, 4]"] ;
132 -> 133 ;
134 [label="X[0] <= 0.199\ngini = 0.444\nsamples = 3\nvalue = [2, 1]"] ;
133 -> 134 ;
135 [label="gini = 0.0\nsamples = 1\nvalue = [0, 1]"] ;
134 -> 135 ;
136 [label="gini = 0.0\nsamples = 2\nvalue = [2, 0]"] ;
134 -> 136 ;
137 [label="gini = 0.0\nsamples = 3\nvalue = [0, 3]"] ;
133 -> 137 ;
138 [label="gini = 0.0\nsamples = 3\nvalue = [3, 0]"] ;
132 -> 138 ;
139 [label="gini = 0.0\nsamples = 13\nvalue = [13, 0]"] ;
107 -> 139 ;
140 [label="gini = 0.0\nsamples = 1\nvalue = [0, 1]"] ;
106 -> 140 ;
141 [label="X[1] <= 0.016\ngini = 0.073\nsamples = 131\nvalue = [126, 5]"] ;
51 -> 141 ;
142 [label="X[3] <= 0.016\ngini = 0.112\nsamples = 84\nvalue = [79, 5]"] ;
141 -> 142 ;
143 [label="X[0] <= 0.249\ngini = 0.071\nsamples = 81\nvalue = [78, 3]"] ;
142 -> 143 ;
144 [label="X[2] <= 0.162\ngini = 0.052\nsamples = 75\nvalue = [73, 2]"] ;
143 -> 144 ;
145 [label="X[2] <= 0.149\ngini = 0.147\nsamples = 25\nvalue = [23, 2]"] ;
144 -> 145 ;
146 [label="gini = 0.0\nsamples = 20\nvalue = [20, 0]"] ;
145 -> 146 ;
147 [label="X[0] <= 0.225\ngini = 0.48\nsamples = 5\nvalue = [3, 2]"] ;
145 -> 147 ;
148 [label="X[0] <= 0.212\ngini = 0.444\nsamples = 3\nvalue = [1, 2]"] ;
147 -> 148 ;
149 [label="gini = 0.0\nsamples = 1\nvalue = [1, 0]"] ;
148 -> 149 ;
150 [label="gini = 0.0\nsamples = 2\nvalue = [0, 2]"] ;
148 -> 150 ;
151 [label="gini = 0.0\nsamples = 2\nvalue = [2, 0]"] ;
147 -> 151 ;
152 [label="gini = 0.0\nsamples = 50\nvalue = [50, 0]"] ;
144 -> 152 ;
153 [label="X[2] <= 0.234\ngini = 0.278\nsamples = 6\nvalue = [5, 1]"] ;
143 -> 153 ;
154 [label="gini = 0.0\nsamples = 5\nvalue = [5, 0]"] ;
153 -> 154 ;
155 [label="gini = 0.0\nsamples = 1\nvalue = [0, 1]"] ;
153 -> 155 ;
156 [label="X[0] <= 0.216\ngini = 0.444\nsamples = 3\nvalue = [1, 2]"] ;
142 -> 156 ;
157 [label="gini = 0.0\nsamples = 1\nvalue = [1, 0]"] ;
156 -> 157 ;
158 [label="gini = 0.0\nsamples = 2\nvalue = [0, 2]"] ;
156 -> 158 ;
159 [label="gini = 0.0\nsamples = 47\nvalue = [47, 0]"] ;
141 -> 159 ;
160 [label="gini = 0.0\nsamples = 1\nvalue = [0, 1]"] ;
14 -> 160 ;
161 [label="X[2] <= 0.082\ngini = 0.226\nsamples = 177\nvalue = [154, 23]"] ;
13 -> 161 ;
162 [label="X[2] <= 0.078\ngini = 0.497\nsamples = 13\nvalue = [6, 7]"] ;
161 -> 162 ;
163 [label="X[0] <= 0.093\ngini = 0.375\nsamples = 8\nvalue = [6, 2]"] ;
162 -> 163 ;
164 [label="gini = 0.0\nsamples = 2\nvalue = [0, 2]"] ;
163 -> 164 ;
165 [label="gini = 0.0\nsamples = 6\nvalue = [6, 0]"] ;
163 -> 165 ;
166 [label="gini = 0.0\nsamples = 5\nvalue = [0, 5]"] ;
162 -> 166 ;
167 [label="X[0] <= 0.092\ngini = 0.176\nsamples = 164\nvalue = [148, 16]"] ;
161 -> 167 ;
168 [label="gini = 0.0\nsamples = 1\nvalue = [0, 1]"] ;
167 -> 168 ;
169 [label="X[0] <= 0.239\ngini = 0.167\nsamples = 163\nvalue = [148, 15]"] ;
167 -> 169 ;
170 [label="X[1] <= 0.031\ngini = 0.132\nsamples = 141\nvalue = [131, 10]"] ;
169 -> 170 ;
171 [label="X[0] <= 0.218\ngini = 0.298\nsamples = 33\nvalue = [27, 6]"] ;
170 -> 171 ;
172 [label="X[2] <= 0.114\ngini = 0.355\nsamples = 26\nvalue = [20, 6]"] ;
171 -> 172 ;
173 [label="gini = 0.0\nsamples = 1\nvalue = [0, 1]"] ;
172 -> 173 ;
174 [label="X[0] <= 0.183\ngini = 0.32\nsamples = 25\nvalue = [20, 5]"] ;
172 -> 174 ;
175 [label="X[2] <= 0.233\ngini = 0.142\nsamples = 13\nvalue = [12, 1]"] ;
174 -> 175 ;
176 [label="gini = 0.0\nsamples = 12\nvalue = [12, 0]"] ;
175 -> 176 ;
177 [label="gini = 0.0\nsamples = 1\nvalue = [0, 1]"] ;
175 -> 177 ;
178 [label="X[2] <= 0.203\ngini = 0.444\nsamples = 12\nvalue = [8, 4]"] ;
174 -> 178 ;
179 [label="X[0] <= 0.195\ngini = 0.5\nsamples = 8\nvalue = [4, 4]"] ;
178 -> 179 ;
180 [label="gini = 0.0\nsamples = 2\nvalue = [0, 2]"] ;
179 -> 180 ;
181 [label="X[2] <= 0.161\ngini = 0.444\nsamples = 6\nvalue = [4, 2]"] ;
179 -> 181 ;
182 [label="gini = 0.0\nsamples = 3\nvalue = [3, 0]"] ;
181 -> 182 ;
183 [label="X[1] <= 0.024\ngini = 0.444\nsamples = 3\nvalue = [1, 2]"] ;
181 -> 183 ;
184 [label="gini = 0.0\nsamples = 1\nvalue = [0, 1]"] ;
183 -> 184 ;
185 [label="X[1] <= 0.026\ngini = 0.5\nsamples = 2\nvalue = [1, 1]"] ;
183 -> 185 ;
186 [label="gini = 0.0\nsamples = 1\nvalue = [1, 0]"] ;
185 -> 186 ;
187 [label="gini = 0.0\nsamples = 1\nvalue = [0, 1]"] ;
185 -> 187 ;
188 [label="gini = 0.0\nsamples = 4\nvalue = [4, 0]"] ;
178 -> 188 ;
189 [label="gini = 0.0\nsamples = 7\nvalue = [7, 0]"] ;
171 -> 189 ;
190 [label="X[0] <= 0.109\ngini = 0.071\nsamples = 108\nvalue = [104, 4]"] ;
170 -> 190 ;
191 [label="X[3] <= 0.037\ngini = 0.444\nsamples = 3\nvalue = [2, 1]"] ;
190 -> 191 ;
192 [label="gini = 0.0\nsamples = 2\nvalue = [2, 0]"] ;
191 -> 192 ;
193 [label="gini = 0.0\nsamples = 1\nvalue = [0, 1]"] ;
191 -> 193 ;
194 [label="X[2] <= 0.175\ngini = 0.056\nsamples = 105\nvalue = [102, 3]"] ;
190 -> 194 ;
195 [label="gini = 0.0\nsamples = 54\nvalue = [54, 0]"] ;
194 -> 195 ;
196 [label="X[1] <= 0.049\ngini = 0.111\nsamples = 51\nvalue = [48, 3]"] ;
194 -> 196 ;
197 [label="gini = 0.0\nsamples = 24\nvalue = [24, 0]"] ;
196 -> 197 ;
198 [label="X[1] <= 0.05\ngini = 0.198\nsamples = 27\nvalue = [24, 3]"] ;
196 -> 198 ;
199 [label="gini = 0.0\nsamples = 1\nvalue = [0, 1]"] ;
198 -> 199 ;
200 [label="X[3] <= 0.033\ngini = 0.142\nsamples = 26\nvalue = [24, 2]"] ;
198 -> 200 ;
201 [label="gini = 0.0\nsamples = 1\nvalue = [0, 1]"] ;
200 -> 201 ;
202 [label="X[0] <= 0.164\ngini = 0.077\nsamples = 25\nvalue = [24, 1]"] ;
200 -> 202 ;
203 [label="X[0] <= 0.152\ngini = 0.444\nsamples = 3\nvalue = [2, 1]"] ;
202 -> 203 ;
204 [label="gini = 0.0\nsamples = 2\nvalue = [2, 0]"] ;
203 -> 204 ;
205 [label="gini = 0.0\nsamples = 1\nvalue = [0, 1]"] ;
203 -> 205 ;
206 [label="gini = 0.0\nsamples = 22\nvalue = [22, 0]"] ;
202 -> 206 ;
207 [label="X[0] <= 0.243\ngini = 0.351\nsamples = 22\nvalue = [17, 5]"] ;
169 -> 207 ;
208 [label="X[3] <= 0.062\ngini = 0.32\nsamples = 5\nvalue = [1, 4]"] ;
207 -> 208 ;
209 [label="gini = 0.0\nsamples = 4\nvalue = [0, 4]"] ;
208 -> 209 ;
210 [label="gini = 0.0\nsamples = 1\nvalue = [1, 0]"] ;
208 -> 210 ;
211 [label="X[0] <= 0.247\ngini = 0.111\nsamples = 17\nvalue = [16, 1]"] ;
207 -> 211 ;
212 [label="X[0] <= 0.245\ngini = 0.278\nsamples = 6\nvalue = [5, 1]"] ;
211 -> 212 ;
213 [label="gini = 0.0\nsamples = 4\nvalue = [4, 0]"] ;
212 -> 213 ;
214 [label="X[1] <= 0.063\ngini = 0.5\nsamples = 2\nvalue = [1, 1]"] ;
212 -> 214 ;
215 [label="gini = 0.0\nsamples = 1\nvalue = [0, 1]"] ;
214 -> 215 ;
216 [label="gini = 0.0\nsamples = 1\nvalue = [1, 0]"] ;
214 -> 216 ;
217 [label="gini = 0.0\nsamples = 11\nvalue = [11, 0]"] ;
211 -> 217 ;
218 [label="X[2] <= 0.078\ngini = 0.036\nsamples = 219\nvalue = [215, 4]"] ;
12 -> 218 ;
219 [label="X[2] <= 0.075\ngini = 0.375\nsamples = 4\nvalue = [3, 1]"] ;
218 -> 219 ;
220 [label="gini = 0.0\nsamples = 2\nvalue = [2, 0]"] ;
219 -> 220 ;
221 [label="X[3] <= 0.04\ngini = 0.5\nsamples = 2\nvalue = [1, 1]"] ;
219 -> 221 ;
222 [label="gini = 0.0\nsamples = 1\nvalue = [0, 1]"] ;
221 -> 222 ;
223 [label="gini = 0.0\nsamples = 1\nvalue = [1, 0]"] ;
221 -> 223 ;
224 [label="X[3] <= 0.04\ngini = 0.028\nsamples = 215\nvalue = [212, 3]"] ;
218 -> 224 ;
225 [label="X[3] <= 0.04\ngini = 0.06\nsamples = 97\nvalue = [94, 3]"] ;
224 -> 225 ;
226 [label="X[2] <= 0.24\ngini = 0.042\nsamples = 94\nvalue = [92, 2]"] ;
225 -> 226 ;
227 [label="gini = 0.0\nsamples = 55\nvalue = [55, 0]"] ;
226 -> 227 ;
228 [label="X[2] <= 0.242\ngini = 0.097\nsamples = 39\nvalue = [37, 2]"] ;
226 -> 228 ;
229 [label="gini = 0.0\nsamples = 1\nvalue = [0, 1]"] ;
228 -> 229 ;
230 [label="X[3] <= 0.008\ngini = 0.051\nsamples = 38\nvalue = [37, 1]"] ;
228 -> 230 ;
231 [label="X[2] <= 0.277\ngini = 0.105\nsamples = 18\nvalue = [17, 1]"] ;
230 -> 231 ;
232 [label="X[2] <= 0.273\ngini = 0.219\nsamples = 8\nvalue = [7, 1]"] ;
231 -> 232 ;
233 [label="gini = 0.0\nsamples = 7\nvalue = [7, 0]"] ;
232 -> 233 ;
234 [label="gini = 0.0\nsamples = 1\nvalue = [0, 1]"] ;
232 -> 234 ;
235 [label="gini = 0.0\nsamples = 10\nvalue = [10, 0]"] ;
231 -> 235 ;
236 [label="gini = 0.0\nsamples = 20\nvalue = [20, 0]"] ;
230 -> 236 ;
237 [label="X[2] <= 0.24\ngini = 0.444\nsamples = 3\nvalue = [2, 1]"] ;
225 -> 237 ;
238 [label="gini = 0.0\nsamples = 2\nvalue = [2, 0]"] ;
237 -> 238 ;
239 [label="gini = 0.0\nsamples = 1\nvalue = [0, 1]"] ;
237 -> 239 ;
240 [label="gini = 0.0\nsamples = 118\nvalue = [118, 0]"] ;
224 -> 240 ;
241 [label="X[2] <= 0.293\ngini = 0.346\nsamples = 36\nvalue = [28, 8]"] ;
11 -> 241 ;
242 [label="X[1] <= 0.112\ngini = 0.472\nsamples = 21\nvalue = [13, 8]"] ;
241 -> 242 ;
243 [label="gini = 0.0\nsamples = 5\nvalue = [5, 0]"] ;
242 -> 243 ;
244 [label="X[2] <= 0.173\ngini = 0.5\nsamples = 16\nvalue = [8, 8]"] ;
242 -> 244 ;
245 [label="gini = 0.0\nsamples = 5\nvalue = [5, 0]"] ;
244 -> 245 ;
246 [label="X[1] <= 0.144\ngini = 0.397\nsamples = 11\nvalue = [3, 8]"] ;
244 -> 246 ;
247 [label="gini = 0.0\nsamples = 7\nvalue = [0, 7]"] ;
246 -> 247 ;
248 [label="X[0] <= 0.42\ngini = 0.375\nsamples = 4\nvalue = [3, 1]"] ;
246 -> 248 ;
249 [label="gini = 0.0\nsamples = 3\nvalue = [3, 0]"] ;
248 -> 249 ;
250 [label="gini = 0.0\nsamples = 1\nvalue = [0, 1]"] ;
248 -> 250 ;
251 [label="gini = 0.0\nsamples = 15\nvalue = [15, 0]"] ;
241 -> 251 ;
252 [label="X[2] <= 0.241\ngini = 0.32\nsamples = 5\nvalue = [1, 4]"] ;
10 -> 252 ;
253 [label="gini = 0.0\nsamples = 4\nvalue = [0, 4]"] ;
252 -> 253 ;
254 [label="gini = 0.0\nsamples = 1\nvalue = [1, 0]"] ;
252 -> 254 ;
255 [label="X[13] <= 0.731\ngini = 0.026\nsamples = 690\nvalue = [681, 9]"] ;
9 -> 255 ;
256 [label="X[13] <= 0.57\ngini = 0.023\nsamples = 687\nvalue = [679, 8]"] ;
255 -> 256 ;
257 [label="X[0] <= 0.292\ngini = 0.018\nsamples = 662\nvalue = [656, 6]"] ;
256 -> 257 ;
258 [label="X[2] <= 0.046\ngini = 0.007\nsamples = 544\nvalue = [542, 2]"] ;
257 -> 258 ;
259 [label="X[2] <= 0.044\ngini = 0.074\nsamples = 26\nvalue = [25, 1]"] ;
258 -> 259 ;
260 [label="gini = 0.0\nsamples = 24\nvalue = [24, 0]"] ;
259 -> 260 ;
261 [label="X[15] <= 0.028\ngini = 0.5\nsamples = 2\nvalue = [1, 1]"] ;
259 -> 261 ;
262 [label="gini = 0.0\nsamples = 1\nvalue = [1, 0]"] ;
261 -> 262 ;
263 [label="gini = 0.0\nsamples = 1\nvalue = [0, 1]"] ;
261 -> 263 ;
264 [label="X[10] <= -0.5\ngini = 0.004\nsamples = 518\nvalue = [517, 1]"] ;
258 -> 264 ;
265 [label="X[0] <= 0.173\ngini = 0.011\nsamples = 189\nvalue = [188, 1]"] ;
264 -> 265 ;
266 [label="X[0] <= 0.172\ngini = 0.026\nsamples = 76\nvalue = [75, 1]"] ;
265 -> 266 ;
267 [label="gini = 0.0\nsamples = 75\nvalue = [75, 0]"] ;
266 -> 267 ;
268 [label="gini = 0.0\nsamples = 1\nvalue = [0, 1]"] ;
266 -> 268 ;
269 [label="gini = 0.0\nsamples = 113\nvalue = [113, 0]"] ;
265 -> 269 ;
270 [label="gini = 0.0\nsamples = 329\nvalue = [329, 0]"] ;
264 -> 270 ;
271 [label="X[0] <= 0.294\ngini = 0.065\nsamples = 118\nvalue = [114, 4]"] ;
257 -> 271 ;
272 [label="X[11] <= -0.333\ngini = 0.444\nsamples = 3\nvalue = [1, 2]"] ;
271 -> 272 ;
273 [label="gini = 0.0\nsamples = 2\nvalue = [0, 2]"] ;
272 -> 273 ;
274 [label="gini = 0.0\nsamples = 1\nvalue = [1, 0]"] ;
272 -> 274 ;
275 [label="X[3] <= 0.102\ngini = 0.034\nsamples = 115\nvalue = [113, 2]"] ;
271 -> 275 ;
276 [label="X[2] <= 0.314\ngini = 0.02\nsamples = 101\nvalue = [100, 1]"] ;
275 -> 276 ;
277 [label="gini = 0.0\nsamples = 88\nvalue = [88, 0]"] ;
276 -> 277 ;
278 [label="X[1] <= 0.028\ngini = 0.142\nsamples = 13\nvalue = [12, 1]"] ;
276 -> 278 ;
279 [label="gini = 0.0\nsamples = 1\nvalue = [0, 1]"] ;
278 -> 279 ;
280 [label="gini = 0.0\nsamples = 12\nvalue = [12, 0]"] ;
278 -> 280 ;
281 [label="X[3] <= 0.111\ngini = 0.133\nsamples = 14\nvalue = [13, 1]"] ;
275 -> 281 ;
282 [label="gini = 0.0\nsamples = 1\nvalue = [0, 1]"] ;
281 -> 282 ;
283 [label="gini = 0.0\nsamples = 13\nvalue = [13, 0]"] ;
281 -> 283 ;
284 [label="X[10] <= 0.6\ngini = 0.147\nsamples = 25\nvalue = [23, 2]"] ;
256 -> 284 ;
285 [label="X[13] <= 0.611\ngini = 0.444\nsamples = 3\nvalue = [1, 2]"] ;
284 -> 285 ;
286 [label="gini = 0.0\nsamples = 2\nvalue = [0, 2]"] ;
285 -> 286 ;
287 [label="gini = 0.0\nsamples = 1\nvalue = [1, 0]"] ;
285 -> 287 ;
288 [label="gini = 0.0\nsamples = 22\nvalue = [22, 0]"] ;
284 -> 288 ;
289 [label="X[14] <= 0.577\ngini = 0.444\nsamples = 3\nvalue = [2, 1]"] ;
255 -> 289 ;
290 [label="gini = 0.0\nsamples = 2\nvalue = [2, 0]"] ;
289 -> 290 ;
291 [label="gini = 0.0\nsamples = 1\nvalue = [0, 1]"] ;
289 -> 291 ;
292 [label="X[2] <= 0.237\ngini = 0.002\nsamples = 821\nvalue = [820, 1]"] ;
8 -> 292 ;
293 [label="gini = 0.0\nsamples = 631\nvalue = [631, 0]"] ;
292 -> 293 ;
294 [label="X[2] <= 0.239\ngini = 0.01\nsamples = 190\nvalue = [189, 1]"] ;
292 -> 294 ;
295 [label="X[3] <= 0.012\ngini = 0.219\nsamples = 8\nvalue = [7, 1]"] ;
294 -> 295 ;
296 [label="X[9] <= -0.375\ngini = 0.444\nsamples = 3\nvalue = [2, 1]"] ;
295 -> 296 ;
297 [label="gini = 0.0\nsamples = 1\nvalue = [0, 1]"] ;
296 -> 297 ;
298 [label="gini = 0.0\nsamples = 2\nvalue = [2, 0]"] ;
296 -> 298 ;
299 [label="gini = 0.0\nsamples = 5\nvalue = [5, 0]"] ;
295 -> 299 ;
300 [label="gini = 0.0\nsamples = 182\nvalue = [182, 0]"] ;
294 -> 300 ;
301 [label="X[9] <= 0.1\ngini = 0.233\nsamples = 230\nvalue = [199, 31]"] ;
7 -> 301 ;
302 [label="X[0] <= 0.202\ngini = 0.491\nsamples = 23\nvalue = [13, 10]"] ;
301 -> 302 ;
303 [label="X[14] <= 0.692\ngini = 0.426\nsamples = 13\nvalue = [4, 9]"] ;
302 -> 303 ;
304 [label="gini = 0.0\nsamples = 2\nvalue = [2, 0]"] ;
303 -> 304 ;
305 [label="X[0] <= 0.122\ngini = 0.298\nsamples = 11\nvalue = [2, 9]"] ;
303 -> 305 ;
306 [label="X[7] <= 0.5\ngini = 0.444\nsamples = 3\nvalue = [2, 1]"] ;
305 -> 306 ;
307 [label="gini = 0.0\nsamples = 1\nvalue = [0, 1]"] ;
306 -> 307 ;
308 [label="gini = 0.0\nsamples = 2\nvalue = [2, 0]"] ;
306 -> 308 ;
309 [label="gini = 0.0\nsamples = 8\nvalue = [0, 8]"] ;
305 -> 309 ;
310 [label="X[12] <= 0.899\ngini = 0.18\nsamples = 10\nvalue = [9, 1]"] ;
302 -> 310 ;
311 [label="gini = 0.0\nsamples = 7\nvalue = [7, 0]"] ;
310 -> 311 ;
312 [label="X[0] <= 0.272\ngini = 0.444\nsamples = 3\nvalue = [2, 1]"] ;
310 -> 312 ;
313 [label="gini = 0.0\nsamples = 1\nvalue = [0, 1]"] ;
312 -> 313 ;
314 [label="gini = 0.0\nsamples = 2\nvalue = [2, 0]"] ;
312 -> 314 ;
315 [label="X[15] <= 0.568\ngini = 0.182\nsamples = 207\nvalue = [186, 21]"] ;
301 -> 315 ;
316 [label="X[2] <= 0.208\ngini = 0.444\nsamples = 3\nvalue = [1, 2]"] ;
315 -> 316 ;
317 [label="gini = 0.0\nsamples = 2\nvalue = [0, 2]"] ;
316 -> 317 ;
318 [label="gini = 0.0\nsamples = 1\nvalue = [1, 0]"] ;
316 -> 318 ;
319 [label="X[6] <= 0.079\ngini = 0.169\nsamples = 204\nvalue = [185, 19]"] ;
315 -> 319 ;
320 [label="X[13] <= 0.862\ngini = 0.5\nsamples = 4\nvalue = [2, 2]"] ;
319 -> 320 ;
321 [label="gini = 0.0\nsamples = 2\nvalue = [2, 0]"] ;
320 -> 321 ;
322 [label="gini = 0.0\nsamples = 2\nvalue = [0, 2]"] ;
320 -> 322 ;
323 [label="X[21] <= 0.19\ngini = 0.156\nsamples = 200\nvalue = [183, 17]"] ;
319 -> 323 ;
324 [label="X[15] <= 0.717\ngini = 0.205\nsamples = 138\nvalue = [122, 16]"] ;
323 -> 324 ;
325 [label="X[2] <= 0.204\ngini = 0.463\nsamples = 11\nvalue = [7, 4]"] ;
324 -> 325 ;
326 [label="X[9] <= 0.786\ngini = 0.219\nsamples = 8\nvalue = [7, 1]"] ;
325 -> 326 ;
327 [label="gini = 0.0\nsamples = 1\nvalue = [0, 1]"] ;
326 -> 327 ;
328 [label="gini = 0.0\nsamples = 7\nvalue = [7, 0]"] ;
326 -> 328 ;
329 [label="gini = 0.0\nsamples = 3\nvalue = [0, 3]"] ;
325 -> 329 ;
330 [label="X[13] <= 0.962\ngini = 0.171\nsamples = 127\nvalue = [115, 12]"] ;
324 -> 330 ;
331 [label="X[12] <= 0.891\ngini = 0.273\nsamples = 43\nvalue = [36, 7]"] ;
330 -> 331 ;
332 [label="X[9] <= 0.452\ngini = 0.062\nsamples = 31\nvalue = [30, 1]"] ;
331 -> 332 ;
333 [label="X[13] <= 0.835\ngini = 0.5\nsamples = 2\nvalue = [1, 1]"] ;
332 -> 333 ;
334 [label="gini = 0.0\nsamples = 1\nvalue = [1, 0]"] ;
333 -> 334 ;
335 [label="gini = 0.0\nsamples = 1\nvalue = [0, 1]"] ;
333 -> 335 ;
336 [label="gini = 0.0\nsamples = 29\nvalue = [29, 0]"] ;
332 -> 336 ;
337 [label="X[1] <= 0.021\ngini = 0.5\nsamples = 12\nvalue = [6, 6]"] ;
331 -> 337 ;
338 [label="gini = 0.0\nsamples = 3\nvalue = [0, 3]"] ;
337 -> 338 ;
339 [label="X[0] <= 0.245\ngini = 0.444\nsamples = 9\nvalue = [6, 3]"] ;
337 -> 339 ;
340 [label="gini = 0.0\nsamples = 4\nvalue = [4, 0]"] ;
339 -> 340 ;
341 [label="X[3] <= 0.063\ngini = 0.48\nsamples = 5\nvalue = [2, 3]"] ;
339 -> 341 ;
342 [label="gini = 0.0\nsamples = 3\nvalue = [0, 3]"] ;
341 -> 342 ;
343 [label="gini = 0.0\nsamples = 2\nvalue = [2, 0]"] ;
341 -> 343 ;
344 [label="X[3] <= 0.021\ngini = 0.112\nsamples = 84\nvalue = [79, 5]"] ;
330 -> 344 ;
345 [label="X[3] <= 0.02\ngini = 0.21\nsamples = 42\nvalue = [37, 5]"] ;
344 -> 345 ;
346 [label="X[2] <= 0.283\ngini = 0.139\nsamples = 40\nvalue = [37, 3]"] ;
345 -> 346 ;
347 [label="X[2] <= 0.047\ngini = 0.1\nsamples = 38\nvalue = [36, 2]"] ;
346 -> 347 ;
348 [label="X[0] <= 0.201\ngini = 0.444\nsamples = 3\nvalue = [2, 1]"] ;
347 -> 348 ;
349 [label="gini = 0.0\nsamples = 2\nvalue = [2, 0]"] ;
348 -> 349 ;
350 [label="gini = 0.0\nsamples = 1\nvalue = [0, 1]"] ;
348 -> 350 ;
351 [label="X[2] <= 0.139\ngini = 0.056\nsamples = 35\nvalue = [34, 1]"] ;
347 -> 351 ;
352 [label="X[2] <= 0.128\ngini = 0.133\nsamples = 14\nvalue = [13, 1]"] ;
351 -> 352 ;
353 [label="gini = 0.0\nsamples = 13\nvalue = [13, 0]"] ;
352 -> 353 ;
354 [label="gini = 0.0\nsamples = 1\nvalue = [0, 1]"] ;
352 -> 354 ;
355 [label="gini = 0.0\nsamples = 21\nvalue = [21, 0]"] ;
351 -> 355 ;
356 [label="X[0] <= 0.221\ngini = 0.5\nsamples = 2\nvalue = [1, 1]"] ;
346 -> 356 ;
357 [label="gini = 0.0\nsamples = 1\nvalue = [0, 1]"] ;
356 -> 357 ;
358 [label="gini = 0.0\nsamples = 1\nvalue = [1, 0]"] ;
356 -> 358 ;
359 [label="gini = 0.0\nsamples = 2\nvalue = [0, 2]"] ;
345 -> 359 ;
360 [label="gini = 0.0\nsamples = 42\nvalue = [42, 0]"] ;
344 -> 360 ;
361 [label="X[21] <= 0.646\ngini = 0.032\nsamples = 62\nvalue = [61, 1]"] ;
323 -> 361 ;
362 [label="gini = 0.0\nsamples = 60\nvalue = [60, 0]"] ;
361 -> 362 ;
363 [label="X[2] <= 0.233\ngini = 0.5\nsamples = 2\nvalue = [1, 1]"] ;
361 -> 363 ;
364 [label="gini = 0.0\nsamples = 1\nvalue = [1, 0]"] ;
363 -> 364 ;
365 [label="gini = 0.0\nsamples = 1\nvalue = [0, 1]"] ;
363 -> 365 ;
366 [label="X[1] <= 0.043\ngini = 0.444\nsamples = 6\nvalue = [2, 4]"] ;
6 -> 366 ;
367 [label="gini = 0.0\nsamples = 2\nvalue = [2, 0]"] ;
366 -> 367 ;
368 [label="gini = 0.0\nsamples = 4\nvalue = [0, 4]"] ;
366 -> 368 ;
369 [label="X[2] <= 0.173\ngini = 0.289\nsamples = 291\nvalue = [240, 51]"] ;
5 -> 369 ;
370 [label="X[21] <= -0.476\ngini = 0.48\nsamples = 35\nvalue = [14, 21]"] ;
369 -> 370 ;
371 [label="X[3] <= 0.144\ngini = 0.365\nsamples = 25\nvalue = [6, 19]"] ;
370 -> 371 ;
372 [label="X[3] <= 0.088\ngini = 0.486\nsamples = 12\nvalue = [5, 7]"] ;
371 -> 372 ;
373 [label="gini = 0.0\nsamples = 2\nvalue = [0, 2]"] ;
372 -> 373 ;
374 [label="X[3] <= 0.107\ngini = 0.5\nsamples = 10\nvalue = [5, 5]"] ;
372 -> 374 ;
375 [label="gini = 0.0\nsamples = 2\nvalue = [2, 0]"] ;
374 -> 375 ;
376 [label="X[10] <= 0.6\ngini = 0.469\nsamples = 8\nvalue = [3, 5]"] ;
374 -> 376 ;
377 [label="X[3] <= 0.139\ngini = 0.408\nsamples = 7\nvalue = [2, 5]"] ;
376 -> 377 ;
378 [label="gini = 0.0\nsamples = 4\nvalue = [0, 4]"] ;
377 -> 378 ;
379 [label="X[2] <= 0.16\ngini = 0.444\nsamples = 3\nvalue = [2, 1]"] ;
377 -> 379 ;
380 [label="gini = 0.0\nsamples = 2\nvalue = [2, 0]"] ;
379 -> 380 ;
381 [label="gini = 0.0\nsamples = 1\nvalue = [0, 1]"] ;
379 -> 381 ;
382 [label="gini = 0.0\nsamples = 1\nvalue = [1, 0]"] ;
376 -> 382 ;
383 [label="X[0] <= 0.268\ngini = 0.142\nsamples = 13\nvalue = [1, 12]"] ;
371 -> 383 ;
384 [label="X[2] <= 0.15\ngini = 0.5\nsamples = 2\nvalue = [1, 1]"] ;
383 -> 384 ;
385 [label="gini = 0.0\nsamples = 1\nvalue = [1, 0]"] ;
384 -> 385 ;
386 [label="gini = 0.0\nsamples = 1\nvalue = [0, 1]"] ;
384 -> 386 ;
387 [label="gini = 0.0\nsamples = 11\nvalue = [0, 11]"] ;
383 -> 387 ;
388 [label="X[15] <= 0.254\ngini = 0.32\nsamples = 10\nvalue = [8, 2]"] ;
370 -> 388 ;
389 [label="gini = 0.0\nsamples = 7\nvalue = [7, 0]"] ;
388 -> 389 ;
390 [label="X[22] <= -0.182\ngini = 0.444\nsamples = 3\nvalue = [1, 2]"] ;
388 -> 390 ;
391 [label="gini = 0.0\nsamples = 2\nvalue = [0, 2]"] ;
390 -> 391 ;
392 [label="gini = 0.0\nsamples = 1\nvalue = [1, 0]"] ;
390 -> 392 ;
393 [label="X[0] <= 0.431\ngini = 0.207\nsamples = 256\nvalue = [226, 30]"] ;
369 -> 393 ;
394 [label="X[2] <= 0.274\ngini = 0.332\nsamples = 119\nvalue = [94, 25]"] ;
393 -> 394 ;
395 [label="X[3] <= 0.105\ngini = 0.425\nsamples = 62\nvalue = [43, 19]"] ;
394 -> 395 ;
396 [label="X[14] <= 0.914\ngini = 0.172\nsamples = 21\nvalue = [19, 2]"] ;
395 -> 396 ;
397 [label="X[0] <= 0.347\ngini = 0.095\nsamples = 20\nvalue = [19, 1]"] ;
396 -> 397 ;
398 [label="X[0] <= 0.326\ngini = 0.444\nsamples = 3\nvalue = [2, 1]"] ;
397 -> 398 ;
399 [label="gini = 0.0\nsamples = 2\nvalue = [2, 0]"] ;
398 -> 399 ;
400 [label="gini = 0.0\nsamples = 1\nvalue = [0, 1]"] ;
398 -> 400 ;
401 [label="gini = 0.0\nsamples = 17\nvalue = [17, 0]"] ;
397 -> 401 ;
402 [label="gini = 0.0\nsamples = 1\nvalue = [0, 1]"] ;
396 -> 402 ;
403 [label="X[3] <= 0.107\ngini = 0.485\nsamples = 41\nvalue = [24, 17]"] ;
395 -> 403 ;
404 [label="X[20] <= 0.636\ngini = 0.245\nsamples = 7\nvalue = [1, 6]"] ;
403 -> 404 ;
405 [label="gini = 0.0\nsamples = 6\nvalue = [0, 6]"] ;
404 -> 405 ;
406 [label="gini = 0.0\nsamples = 1\nvalue = [1, 0]"] ;
404 -> 406 ;
407 [label="X[21] <= -0.45\ngini = 0.438\nsamples = 34\nvalue = [23, 11]"] ;
403 -> 407 ;
408 [label="X[1] <= 0.213\ngini = 0.488\nsamples = 26\nvalue = [15, 11]"] ;
407 -> 408 ;
409 [label="gini = 0.0\nsamples = 5\nvalue = [5, 0]"] ;
408 -> 409 ;
410 [label="X[2] <= 0.271\ngini = 0.499\nsamples = 21\nvalue = [10, 11]"] ;
408 -> 410 ;
411 [label="X[2] <= 0.265\ngini = 0.499\nsamples = 19\nvalue = [10, 9]"] ;
410 -> 411 ;
412 [label="X[1] <= 0.246\ngini = 0.492\nsamples = 16\nvalue = [7, 9]"] ;
411 -> 412 ;
413 [label="gini = 0.0\nsamples = 3\nvalue = [0, 3]"] ;
412 -> 413 ;
414 [label="X[2] <= 0.255\ngini = 0.497\nsamples = 13\nvalue = [7, 6]"] ;
412 -> 414 ;
415 [label="X[1] <= 0.27\ngini = 0.375\nsamples = 8\nvalue = [6, 2]"] ;
414 -> 415 ;
416 [label="X[3] <= 0.148\ngini = 0.5\nsamples = 4\nvalue = [2, 2]"] ;
415 -> 416 ;
417 [label="gini = 0.0\nsamples = 1\nvalue = [1, 0]"] ;
416 -> 417 ;
418 [label="X[6] <= 0.0\ngini = 0.444\nsamples = 3\nvalue = [1, 2]"] ;
416 -> 418 ;
419 [label="gini = 0.0\nsamples = 2\nvalue = [0, 2]"] ;
418 -> 419 ;
420 [label="gini = 0.0\nsamples = 1\nvalue = [1, 0]"] ;
418 -> 420 ;
421 [label="gini = 0.0\nsamples = 4\nvalue = [4, 0]"] ;
415 -> 421 ;
422 [label="X[0] <= 0.392\ngini = 0.32\nsamples = 5\nvalue = [1, 4]"] ;
414 -> 422 ;
423 [label="gini = 0.0\nsamples = 1\nvalue = [1, 0]"] ;
422 -> 423 ;
424 [label="gini = 0.0\nsamples = 4\nvalue = [0, 4]"] ;
422 -> 424 ;
425 [label="gini = 0.0\nsamples = 3\nvalue = [3, 0]"] ;
411 -> 425 ;
426 [label="gini = 0.0\nsamples = 2\nvalue = [0, 2]"] ;
410 -> 426 ;
427 [label="gini = 0.0\nsamples = 8\nvalue = [8, 0]"] ;
407 -> 427 ;
428 [label="X[1] <= 0.346\ngini = 0.188\nsamples = 57\nvalue = [51, 6]"] ;
394 -> 428 ;
429 [label="X[1] <= 0.191\ngini = 0.163\nsamples = 56\nvalue = [51, 5]"] ;
428 -> 429 ;
430 [label="X[1] <= 0.186\ngini = 0.42\nsamples = 10\nvalue = [7, 3]"] ;
429 -> 430 ;
431 [label="X[3] <= 0.185\ngini = 0.346\nsamples = 9\nvalue = [7, 2]"] ;
430 -> 431 ;
432 [label="X[5] <= 0.9\ngini = 0.219\nsamples = 8\nvalue = [7, 1]"] ;
431 -> 432 ;
433 [label="gini = 0.0\nsamples = 6\nvalue = [6, 0]"] ;
432 -> 433 ;
434 [label="X[12] <= 0.635\ngini = 0.5\nsamples = 2\nvalue = [1, 1]"] ;
432 -> 434 ;
435 [label="gini = 0.0\nsamples = 1\nvalue = [1, 0]"] ;
434 -> 435 ;
436 [label="gini = 0.0\nsamples = 1\nvalue = [0, 1]"] ;
434 -> 436 ;
437 [label="gini = 0.0\nsamples = 1\nvalue = [0, 1]"] ;
431 -> 437 ;
438 [label="gini = 0.0\nsamples = 1\nvalue = [0, 1]"] ;
430 -> 438 ;
439 [label="X[0] <= 0.426\ngini = 0.083\nsamples = 46\nvalue = [44, 2]"] ;
429 -> 439 ;
440 [label="X[15] <= 0.592\ngini = 0.046\nsamples = 42\nvalue = [41, 1]"] ;
439 -> 440 ;
441 [label="gini = 0.0\nsamples = 39\nvalue = [39, 0]"] ;
440 -> 441 ;
442 [label="X[13] <= 0.732\ngini = 0.444\nsamples = 3\nvalue = [2, 1]"] ;
440 -> 442 ;
443 [label="gini = 0.0\nsamples = 1\nvalue = [0, 1]"] ;
442 -> 443 ;
444 [label="gini = 0.0\nsamples = 2\nvalue = [2, 0]"] ;
442 -> 444 ;
445 [label="X[0] <= 0.427\ngini = 0.375\nsamples = 4\nvalue = [3, 1]"] ;
439 -> 445 ;
446 [label="gini = 0.0\nsamples = 1\nvalue = [0, 1]"] ;
445 -> 446 ;
447 [label="gini = 0.0\nsamples = 3\nvalue = [3, 0]"] ;
445 -> 447 ;
448 [label="gini = 0.0\nsamples = 1\nvalue = [0, 1]"] ;
428 -> 448 ;
449 [label="X[1] <= 0.172\ngini = 0.07\nsamples = 137\nvalue = [132, 5]"] ;
393 -> 449 ;
450 [label="gini = 0.0\nsamples = 1\nvalue = [0, 1]"] ;
449 -> 450 ;
451 [label="X[3] <= 0.165\ngini = 0.057\nsamples = 136\nvalue = [132, 4]"] ;
449 -> 451 ;
452 [label="gini = 0.0\nsamples = 96\nvalue = [96, 0]"] ;
451 -> 452 ;
453 [label="X[1] <= 0.292\ngini = 0.18\nsamples = 40\nvalue = [36, 4]"] ;
451 -> 453 ;
454 [label="X[1] <= 0.283\ngini = 0.346\nsamples = 18\nvalue = [14, 4]"] ;
453 -> 454 ;
455 [label="X[2] <= 0.289\ngini = 0.124\nsamples = 15\nvalue = [14, 1]"] ;
454 -> 455 ;
456 [label="X[20] <= -0.227\ngini = 0.375\nsamples = 4\nvalue = [3, 1]"] ;
455 -> 456 ;
457 [label="gini = 0.0\nsamples = 1\nvalue = [0, 1]"] ;
456 -> 457 ;
458 [label="gini = 0.0\nsamples = 3\nvalue = [3, 0]"] ;
456 -> 458 ;
459 [label="gini = 0.0\nsamples = 11\nvalue = [11, 0]"] ;
455 -> 459 ;
460 [label="gini = 0.0\nsamples = 3\nvalue = [0, 3]"] ;
454 -> 460 ;
461 [label="gini = 0.0\nsamples = 22\nvalue = [22, 0]"] ;
453 -> 461 ;
462 [label="X[15] <= 0.493\ngini = 0.014\nsamples = 2073\nvalue = [2058, 15]"] ;
4 -> 462 ;
463 [label="X[1] <= 0.335\ngini = 0.009\nsamples = 1935\nvalue = [1926, 9]"] ;
462 -> 463 ;
464 [label="X[6] <= -0.455\ngini = 0.006\nsamples = 1879\nvalue = [1873, 6]"] ;
463 -> 464 ;
465 [label="X[3] <= 0.007\ngini = 0.014\nsamples = 862\nvalue = [856, 6]"] ;
464 -> 465 ;
466 [label="X[2] <= 0.27\ngini = 0.034\nsamples = 285\nvalue = [280, 5]"] ;
465 -> 466 ;
467 [label="X[2] <= 0.085\ngini = 0.029\nsamples = 270\nvalue = [266, 4]"] ;
466 -> 467 ;
468 [label="X[0] <= 0.205\ngini = 0.074\nsamples = 52\nvalue = [50, 2]"] ;
467 -> 468 ;
469 [label="gini = 0.0\nsamples = 44\nvalue = [44, 0]"] ;
468 -> 469 ;
470 [label="X[21] <= 0.095\ngini = 0.375\nsamples = 8\nvalue = [6, 2]"] ;
468 -> 470 ;
471 [label="gini = 0.0\nsamples = 6\nvalue = [6, 0]"] ;
470 -> 471 ;
472 [label="gini = 0.0\nsamples = 2\nvalue = [0, 2]"] ;
470 -> 472 ;
473 [label="X[0] <= 0.122\ngini = 0.018\nsamples = 218\nvalue = [216, 2]"] ;
467 -> 473 ;
474 [label="X[0] <= 0.117\ngini = 0.102\nsamples = 37\nvalue = [35, 2]"] ;
473 -> 474 ;
475 [label="X[2] <= 0.188\ngini = 0.056\nsamples = 35\nvalue = [34, 1]"] ;
474 -> 475 ;
476 [label="gini = 0.0\nsamples = 31\nvalue = [31, 0]"] ;
475 -> 476 ;
477 [label="X[21] <= -0.368\ngini = 0.375\nsamples = 4\nvalue = [3, 1]"] ;
475 -> 477 ;
478 [label="gini = 0.0\nsamples = 1\nvalue = [0, 1]"] ;
477 -> 478 ;
479 [label="gini = 0.0\nsamples = 3\nvalue = [3, 0]"] ;
477 -> 479 ;
480 [label="X[25] <= 0.357\ngini = 0.5\nsamples = 2\nvalue = [1, 1]"] ;
474 -> 480 ;
481 [label="gini = 0.0\nsamples = 1\nvalue = [1, 0]"] ;
480 -> 481 ;
482 [label="gini = 0.0\nsamples = 1\nvalue = [0, 1]"] ;
480 -> 482 ;
483 [label="gini = 0.0\nsamples = 181\nvalue = [181, 0]"] ;
473 -> 483 ;
484 [label="X[0] <= 0.175\ngini = 0.124\nsamples = 15\nvalue = [14, 1]"] ;
466 -> 484 ;
485 [label="gini = 0.0\nsamples = 1\nvalue = [0, 1]"] ;
484 -> 485 ;
486 [label="gini = 0.0\nsamples = 14\nvalue = [14, 0]"] ;
484 -> 486 ;
487 [label="X[2] <= 0.383\ngini = 0.003\nsamples = 577\nvalue = [576, 1]"] ;
465 -> 487 ;
488 [label="gini = 0.0\nsamples = 550\nvalue = [550, 0]"] ;
487 -> 488 ;
489 [label="X[25] <= 0.402\ngini = 0.071\nsamples = 27\nvalue = [26, 1]"] ;
487 -> 489 ;
490 [label="gini = 0.0\nsamples = 26\nvalue = [26, 0]"] ;
489 -> 490 ;
491 [label="gini = 0.0\nsamples = 1\nvalue = [0, 1]"] ;
489 -> 491 ;
492 [label="gini = 0.0\nsamples = 1017\nvalue = [1017, 0]"] ;
464 -> 492 ;
493 [label="X[1] <= 0.337\ngini = 0.101\nsamples = 56\nvalue = [53, 3]"] ;
463 -> 493 ;
494 [label="gini = 0.0\nsamples = 1\nvalue = [0, 1]"] ;
493 -> 494 ;
495 [label="X[2] <= 0.125\ngini = 0.07\nsamples = 55\nvalue = [53, 2]"] ;
493 -> 495 ;
496 [label="gini = 0.0\nsamples = 1\nvalue = [0, 1]"] ;
495 -> 496 ;
497 [label="X[24] <= 0.708\ngini = 0.036\nsamples = 54\nvalue = [53, 1]"] ;
495 -> 497 ;
498 [label="gini = 0.0\nsamples = 48\nvalue = [48, 0]"] ;
497 -> 498 ;
499 [label="X[4] <= 0.0\ngini = 0.278\nsamples = 6\nvalue = [5, 1]"] ;
497 -> 499 ;
500 [label="X[1] <= 0.378\ngini = 0.5\nsamples = 2\nvalue = [1, 1]"] ;
499 -> 500 ;
501 [label="gini = 0.0\nsamples = 1\nvalue = [1, 0]"] ;
500 -> 501 ;
502 [label="gini = 0.0\nsamples = 1\nvalue = [0, 1]"] ;
500 -> 502 ;
503 [label="gini = 0.0\nsamples = 4\nvalue = [4, 0]"] ;
499 -> 503 ;
504 [label="X[15] <= 0.538\ngini = 0.083\nsamples = 138\nvalue = [132, 6]"] ;
462 -> 504 ;
505 [label="X[3] <= 0.015\ngini = 0.5\nsamples = 6\nvalue = [3, 3]"] ;
504 -> 505 ;
506 [label="gini = 0.0\nsamples = 3\nvalue = [0, 3]"] ;
505 -> 506 ;
507 [label="gini = 0.0\nsamples = 3\nvalue = [3, 0]"] ;
505 -> 507 ;
508 [label="X[7] <= 0.74\ngini = 0.044\nsamples = 132\nvalue = [129, 3]"] ;
504 -> 508 ;
509 [label="X[14] <= 0.89\ngini = 0.444\nsamples = 3\nvalue = [1, 2]"] ;
508 -> 509 ;
510 [label="gini = 0.0\nsamples = 1\nvalue = [1, 0]"] ;
509 -> 510 ;
511 [label="gini = 0.0\nsamples = 2\nvalue = [0, 2]"] ;
509 -> 511 ;
512 [label="X[10] <= 0.4\ngini = 0.015\nsamples = 129\nvalue = [128, 1]"] ;
508 -> 512 ;
513 [label="X[1] <= 0.111\ngini = 0.375\nsamples = 4\nvalue = [3, 1]"] ;
512 -> 513 ;
514 [label="X[2] <= 0.056\ngini = 0.5\nsamples = 2\nvalue = [1, 1]"] ;
513 -> 514 ;
515 [label="gini = 0.0\nsamples = 1\nvalue = [1, 0]"] ;
514 -> 515 ;
516 [label="gini = 0.0\nsamples = 1\nvalue = [0, 1]"] ;
514 -> 516 ;
517 [label="gini = 0.0\nsamples = 2\nvalue = [2, 0]"] ;
513 -> 517 ;
518 [label="gini = 0.0\nsamples = 125\nvalue = [125, 0]"] ;
512 -> 518 ;
519 [label="X[2] <= 0.244\ngini = 0.38\nsamples = 656\nvalue = [489, 167]"] ;
3 -> 519 ;
520 [label="X[25] <= 0.174\ngini = 0.497\nsamples = 181\nvalue = [98, 83]"] ;
519 -> 520 ;
521 [label="X[5] <= 0.503\ngini = 0.493\nsamples = 131\nvalue = [58, 73]"] ;
520 -> 521 ;
522 [label="X[21] <= -0.389\ngini = 0.427\nsamples = 94\nvalue = [29, 65]"] ;
521 -> 522 ;
523 [label="X[2] <= 0.172\ngini = 0.323\nsamples = 79\nvalue = [16, 63]"] ;
522 -> 523 ;
524 [label="X[3] <= 0.193\ngini = 0.473\nsamples = 13\nvalue = [8, 5]"] ;
523 -> 524 ;
525 [label="gini = 0.0\nsamples = 2\nvalue = [0, 2]"] ;
524 -> 525 ;
526 [label="X[0] <= 0.378\ngini = 0.397\nsamples = 11\nvalue = [8, 3]"] ;
524 -> 526 ;
527 [label="X[2] <= 0.165\ngini = 0.444\nsamples = 3\nvalue = [1, 2]"] ;
526 -> 527 ;
528 [label="gini = 0.0\nsamples = 2\nvalue = [0, 2]"] ;
527 -> 528 ;
529 [label="gini = 0.0\nsamples = 1\nvalue = [1, 0]"] ;
527 -> 529 ;
530 [label="X[0] <= 0.487\ngini = 0.219\nsamples = 8\nvalue = [7, 1]"] ;
526 -> 530 ;
531 [label="gini = 0.0\nsamples = 6\nvalue = [6, 0]"] ;
530 -> 531 ;
532 [label="X[3] <= 0.232\ngini = 0.5\nsamples = 2\nvalue = [1, 1]"] ;
530 -> 532 ;
533 [label="gini = 0.0\nsamples = 1\nvalue = [0, 1]"] ;
532 -> 533 ;
534 [label="gini = 0.0\nsamples = 1\nvalue = [1, 0]"] ;
532 -> 534 ;
535 [label="X[1] <= 0.225\ngini = 0.213\nsamples = 66\nvalue = [8, 58]"] ;
523 -> 535 ;
536 [label="gini = 0.0\nsamples = 2\nvalue = [2, 0]"] ;
535 -> 536 ;
537 [label="X[0] <= 0.412\ngini = 0.17\nsamples = 64\nvalue = [6, 58]"] ;
535 -> 537 ;
538 [label="gini = 0.0\nsamples = 37\nvalue = [0, 37]"] ;
537 -> 538 ;
539 [label="X[1] <= 0.414\ngini = 0.346\nsamples = 27\nvalue = [6, 21]"] ;
537 -> 539 ;
540 [label="X[3] <= 0.247\ngini = 0.5\nsamples = 10\nvalue = [5, 5]"] ;
539 -> 540 ;
541 [label="X[24] <= -0.5\ngini = 0.278\nsamples = 6\nvalue = [5, 1]"] ;
540 -> 541 ;
542 [label="gini = 0.0\nsamples = 5\nvalue = [5, 0]"] ;
541 -> 542 ;
543 [label="gini = 0.0\nsamples = 1\nvalue = [0, 1]"] ;
541 -> 543 ;
544 [label="gini = 0.0\nsamples = 4\nvalue = [0, 4]"] ;
540 -> 544 ;
545 [label="X[3] <= 0.257\ngini = 0.111\nsamples = 17\nvalue = [1, 16]"] ;
539 -> 545 ;
546 [label="gini = 0.0\nsamples = 15\nvalue = [0, 15]"] ;
545 -> 546 ;
547 [label="X[13] <= -0.483\ngini = 0.5\nsamples = 2\nvalue = [1, 1]"] ;
545 -> 547 ;
548 [label="gini = 0.0\nsamples = 1\nvalue = [1, 0]"] ;
547 -> 548 ;
549 [label="gini = 0.0\nsamples = 1\nvalue = [0, 1]"] ;
547 -> 549 ;
550 [label="X[4] <= 0.469\ngini = 0.231\nsamples = 15\nvalue = [13, 2]"] ;
522 -> 550 ;
551 [label="X[1] <= 0.494\ngini = 0.133\nsamples = 14\nvalue = [13, 1]"] ;
550 -> 551 ;
552 [label="gini = 0.0\nsamples = 13\nvalue = [13, 0]"] ;
551 -> 552 ;
553 [label="gini = 0.0\nsamples = 1\nvalue = [0, 1]"] ;
551 -> 553 ;
554 [label="gini = 0.0\nsamples = 1\nvalue = [0, 1]"] ;
550 -> 554 ;
555 [label="X[2] <= 0.242\ngini = 0.339\nsamples = 37\nvalue = [29, 8]"] ;
521 -> 555 ;
556 [label="X[18] <= 0.0\ngini = 0.219\nsamples = 32\nvalue = [28, 4]"] ;
555 -> 556 ;
557 [label="X[1] <= 0.472\ngini = 0.175\nsamples = 31\nvalue = [28, 3]"] ;
556 -> 557 ;
558 [label="X[21] <= 0.17\ngini = 0.071\nsamples = 27\nvalue = [26, 1]"] ;
557 -> 558 ;
559 [label="gini = 0.0\nsamples = 21\nvalue = [21, 0]"] ;
558 -> 559 ;
560 [label="X[20] <= 0.458\ngini = 0.278\nsamples = 6\nvalue = [5, 1]"] ;
558 -> 560 ;
561 [label="gini = 0.0\nsamples = 1\nvalue = [0, 1]"] ;
560 -> 561 ;
562 [label="gini = 0.0\nsamples = 5\nvalue = [5, 0]"] ;
560 -> 562 ;
563 [label="X[2] <= 0.191\ngini = 0.5\nsamples = 4\nvalue = [2, 2]"] ;
557 -> 563 ;
564 [label="gini = 0.0\nsamples = 1\nvalue = [1, 0]"] ;
563 -> 564 ;
565 [label="X[3] <= 0.23\ngini = 0.444\nsamples = 3\nvalue = [1, 2]"] ;
563 -> 565 ;
566 [label="gini = 0.0\nsamples = 1\nvalue = [1, 0]"] ;
565 -> 566 ;
567 [label="gini = 0.0\nsamples = 2\nvalue = [0, 2]"] ;
565 -> 567 ;
568 [label="gini = 0.0\nsamples = 1\nvalue = [0, 1]"] ;
556 -> 568 ;
569 [label="X[12] <= 0.28\ngini = 0.32\nsamples = 5\nvalue = [1, 4]"] ;
555 -> 569 ;
570 [label="gini = 0.0\nsamples = 1\nvalue = [1, 0]"] ;
569 -> 570 ;
571 [label="gini = 0.0\nsamples = 4\nvalue = [0, 4]"] ;
569 -> 571 ;
572 [label="X[1] <= 0.418\ngini = 0.32\nsamples = 50\nvalue = [40, 10]"] ;
520 -> 572 ;
573 [label="X[25] <= 0.381\ngini = 0.176\nsamples = 41\nvalue = [37, 4]"] ;
572 -> 573 ;
574 [label="X[3] <= 0.192\ngini = 0.102\nsamples = 37\nvalue = [35, 2]"] ;
573 -> 574 ;
575 [label="X[12] <= -0.191\ngini = 0.5\nsamples = 2\nvalue = [1, 1]"] ;
574 -> 575 ;
576 [label="gini = 0.0\nsamples = 1\nvalue = [1, 0]"] ;
575 -> 576 ;
577 [label="gini = 0.0\nsamples = 1\nvalue = [0, 1]"] ;
575 -> 577 ;
578 [label="X[25] <= 0.31\ngini = 0.056\nsamples = 35\nvalue = [34, 1]"] ;
574 -> 578 ;
579 [label="gini = 0.0\nsamples = 29\nvalue = [29, 0]"] ;
578 -> 579 ;
580 [label="X[3] <= 0.247\ngini = 0.278\nsamples = 6\nvalue = [5, 1]"] ;
578 -> 580 ;
581 [label="gini = 0.0\nsamples = 5\nvalue = [5, 0]"] ;
580 -> 581 ;
582 [label="gini = 0.0\nsamples = 1\nvalue = [0, 1]"] ;
580 -> 582 ;
583 [label="X[1] <= 0.277\ngini = 0.5\nsamples = 4\nvalue = [2, 2]"] ;
573 -> 583 ;
584 [label="gini = 0.0\nsamples = 2\nvalue = [2, 0]"] ;
583 -> 584 ;
585 [label="gini = 0.0\nsamples = 2\nvalue = [0, 2]"] ;
583 -> 585 ;
586 [label="X[2] <= 0.214\ngini = 0.444\nsamples = 9\nvalue = [3, 6]"] ;
572 -> 586 ;
587 [label="gini = 0.0\nsamples = 5\nvalue = [0, 5]"] ;
586 -> 587 ;
588 [label="X[24] <= 0.775\ngini = 0.375\nsamples = 4\nvalue = [3, 1]"] ;
586 -> 588 ;
589 [label="gini = 0.0\nsamples = 3\nvalue = [3, 0]"] ;
588 -> 589 ;
590 [label="gini = 0.0\nsamples = 1\nvalue = [0, 1]"] ;
588 -> 590 ;
591 [label="X[25] <= -0.5\ngini = 0.291\nsamples = 475\nvalue = [391, 84]"] ;
519 -> 591 ;
592 [label="X[2] <= 0.349\ngini = 0.354\nsamples = 292\nvalue = [225, 67]"] ;
591 -> 592 ;
593 [label="X[3] <= 0.24\ngini = 0.454\nsamples = 106\nvalue = [69, 37]"] ;
592 -> 593 ;
594 [label="X[1] <= 0.332\ngini = 0.351\nsamples = 75\nvalue = [58, 17]"] ;
593 -> 594 ;
595 [label="X[2] <= 0.328\ngini = 0.169\nsamples = 43\nvalue = [39, 4]"] ;
594 -> 595 ;
596 [label="X[1] <= 0.276\ngini = 0.064\nsamples = 30\nvalue = [29, 1]"] ;
595 -> 596 ;
597 [label="gini = 0.0\nsamples = 22\nvalue = [22, 0]"] ;
596 -> 597 ;
598 [label="X[0] <= 0.395\ngini = 0.219\nsamples = 8\nvalue = [7, 1]"] ;
596 -> 598 ;
599 [label="X[3] <= 0.208\ngini = 0.5\nsamples = 2\nvalue = [1, 1]"] ;
598 -> 599 ;
600 [label="gini = 0.0\nsamples = 1\nvalue = [1, 0]"] ;
599 -> 600 ;
601 [label="gini = 0.0\nsamples = 1\nvalue = [0, 1]"] ;
599 -> 601 ;
602 [label="gini = 0.0\nsamples = 6\nvalue = [6, 0]"] ;
598 -> 602 ;
603 [label="X[13] <= 0.357\ngini = 0.355\nsamples = 13\nvalue = [10, 3]"] ;
595 -> 603 ;
604 [label="X[21] <= 0.417\ngini = 0.278\nsamples = 12\nvalue = [10, 2]"] ;
603 -> 604 ;
605 [label="X[1] <= 0.19\ngini = 0.165\nsamples = 11\nvalue = [10, 1]"] ;
604 -> 605 ;
606 [label="gini = 0.0\nsamples = 1\nvalue = [0, 1]"] ;
605 -> 606 ;
607 [label="gini = 0.0\nsamples = 10\nvalue = [10, 0]"] ;
605 -> 607 ;
608 [label="gini = 0.0\nsamples = 1\nvalue = [0, 1]"] ;
604 -> 608 ;
609 [label="gini = 0.0\nsamples = 1\nvalue = [0, 1]"] ;
603 -> 609 ;
610 [label="X[1] <= 0.362\ngini = 0.482\nsamples = 32\nvalue = [19, 13]"] ;
594 -> 610 ;
611 [label="X[19] <= -0.412\ngini = 0.36\nsamples = 17\nvalue = [4, 13]"] ;
610 -> 611 ;
612 [label="X[0] <= 0.416\ngini = 0.231\nsamples = 15\nvalue = [2, 13]"] ;
611 -> 612 ;
613 [label="X[3] <= 0.197\ngini = 0.408\nsamples = 7\nvalue = [2, 5]"] ;
612 -> 613 ;
614 [label="gini = 0.0\nsamples = 4\nvalue = [0, 4]"] ;
613 -> 614 ;
615 [label="X[0] <= 0.39\ngini = 0.444\nsamples = 3\nvalue = [2, 1]"] ;
613 -> 615 ;
616 [label="gini = 0.0\nsamples = 1\nvalue = [0, 1]"] ;
615 -> 616 ;
617 [label="gini = 0.0\nsamples = 2\nvalue = [2, 0]"] ;
615 -> 617 ;
618 [label="gini = 0.0\nsamples = 8\nvalue = [0, 8]"] ;
612 -> 618 ;
619 [label="gini = 0.0\nsamples = 2\nvalue = [2, 0]"] ;
611 -> 619 ;
620 [label="gini = 0.0\nsamples = 15\nvalue = [15, 0]"] ;
610 -> 620 ;
621 [label="X[3] <= 0.244\ngini = 0.458\nsamples = 31\nvalue = [11, 20]"] ;
593 -> 621 ;
622 [label="gini = 0.0\nsamples = 11\nvalue = [0, 11]"] ;
621 -> 622 ;
623 [label="X[0] <= 0.372\ngini = 0.495\nsamples = 20\nvalue = [11, 9]"] ;
621 -> 623 ;
624 [label="gini = 0.0\nsamples = 3\nvalue = [0, 3]"] ;
623 -> 624 ;
625 [label="X[1] <= 0.354\ngini = 0.457\nsamples = 17\nvalue = [11, 6]"] ;
623 -> 625 ;
626 [label="X[0] <= 0.49\ngini = 0.219\nsamples = 8\nvalue = [7, 1]"] ;
625 -> 626 ;
627 [label="gini = 0.0\nsamples = 7\nvalue = [7, 0]"] ;
626 -> 627 ;
628 [label="gini = 0.0\nsamples = 1\nvalue = [0, 1]"] ;
626 -> 628 ;
629 [label="X[6] <= -0.423\ngini = 0.494\nsamples = 9\nvalue = [4, 5]"] ;
625 -> 629 ;
630 [label="X[3] <= 0.256\ngini = 0.408\nsamples = 7\nvalue = [2, 5]"] ;
629 -> 630 ;
631 [label="X[2] <= 0.303\ngini = 0.278\nsamples = 6\nvalue = [1, 5]"] ;
630 -> 631 ;
632 [label="gini = 0.0\nsamples = 4\nvalue = [0, 4]"] ;
631 -> 632 ;
633 [label="X[0] <= 0.442\ngini = 0.5\nsamples = 2\nvalue = [1, 1]"] ;
631 -> 633 ;
634 [label="gini = 0.0\nsamples = 1\nvalue = [0, 1]"] ;
633 -> 634 ;
635 [label="gini = 0.0\nsamples = 1\nvalue = [1, 0]"] ;
633 -> 635 ;
636 [label="gini = 0.0\nsamples = 1\nvalue = [1, 0]"] ;
630 -> 636 ;
637 [label="gini = 0.0\nsamples = 2\nvalue = [2, 0]"] ;
629 -> 637 ;
638 [label="X[13] <= 0.619\ngini = 0.271\nsamples = 186\nvalue = [156, 30]"] ;
592 -> 638 ;
639 [label="X[2] <= 0.42\ngini = 0.232\nsamples = 172\nvalue = [149, 23]"] ;
638 -> 639 ;
640 [label="X[2] <= 0.383\ngini = 0.317\nsamples = 91\nvalue = [73, 18]"] ;
639 -> 640 ;
641 [label="X[0] <= 0.323\ngini = 0.117\nsamples = 48\nvalue = [45, 3]"] ;
640 -> 641 ;
642 [label="gini = 0.0\nsamples = 1\nvalue = [0, 1]"] ;
641 -> 642 ;
643 [label="X[1] <= 0.334\ngini = 0.081\nsamples = 47\nvalue = [45, 2]"] ;
641 -> 643 ;
644 [label="X[1] <= 0.324\ngini = 0.172\nsamples = 21\nvalue = [19, 2]"] ;
643 -> 644 ;
645 [label="gini = 0.0\nsamples = 17\nvalue = [17, 0]"] ;
644 -> 645 ;
646 [label="X[3] <= 0.224\ngini = 0.5\nsamples = 4\nvalue = [2, 2]"] ;
644 -> 646 ;
647 [label="gini = 0.0\nsamples = 1\nvalue = [1, 0]"] ;
646 -> 647 ;
648 [label="X[0] <= 0.473\ngini = 0.444\nsamples = 3\nvalue = [1, 2]"] ;
646 -> 648 ;
649 [label="gini = 0.0\nsamples = 2\nvalue = [0, 2]"] ;
648 -> 649 ;
650 [label="gini = 0.0\nsamples = 1\nvalue = [1, 0]"] ;
648 -> 650 ;
651 [label="gini = 0.0\nsamples = 26\nvalue = [26, 0]"] ;
643 -> 651 ;
652 [label="X[3] <= 0.225\ngini = 0.454\nsamples = 43\nvalue = [28, 15]"] ;
640 -> 652 ;
653 [label="X[1] <= 0.229\ngini = 0.287\nsamples = 23\nvalue = [19, 4]"] ;
652 -> 653 ;
654 [label="gini = 0.0\nsamples = 3\nvalue = [0, 3]"] ;
653 -> 654 ;
655 [label="X[2] <= 0.409\ngini = 0.095\nsamples = 20\nvalue = [19, 1]"] ;
653 -> 655 ;
656 [label="gini = 0.0\nsamples = 15\nvalue = [15, 0]"] ;
655 -> 656 ;
657 [label="X[0] <= 0.454\ngini = 0.32\nsamples = 5\nvalue = [4, 1]"] ;
655 -> 657 ;
658 [label="gini = 0.0\nsamples = 1\nvalue = [0, 1]"] ;
657 -> 658 ;
659 [label="gini = 0.0\nsamples = 4\nvalue = [4, 0]"] ;
657 -> 659 ;
660 [label="X[0] <= 0.49\ngini = 0.495\nsamples = 20\nvalue = [9, 11]"] ;
652 -> 660 ;
661 [label="X[4] <= 0.917\ngini = 0.32\nsamples = 10\nvalue = [2, 8]"] ;
660 -> 661 ;
662 [label="gini = 0.0\nsamples = 7\nvalue = [0, 7]"] ;
661 -> 662 ;
663 [label="X[0] <= 0.474\ngini = 0.444\nsamples = 3\nvalue = [2, 1]"] ;
661 -> 663 ;
664 [label="gini = 0.0\nsamples = 2\nvalue = [2, 0]"] ;
663 -> 664 ;
665 [label="gini = 0.0\nsamples = 1\nvalue = [0, 1]"] ;
663 -> 665 ;
666 [label="X[0] <= 0.528\ngini = 0.42\nsamples = 10\nvalue = [7, 3]"] ;
660 -> 666 ;
667 [label="gini = 0.0\nsamples = 5\nvalue = [5, 0]"] ;
666 -> 667 ;
668 [label="X[1] <= 0.398\ngini = 0.48\nsamples = 5\nvalue = [2, 3]"] ;
666 -> 668 ;
669 [label="gini = 0.0\nsamples = 2\nvalue = [0, 2]"] ;
668 -> 669 ;
670 [label="X[3] <= 0.244\ngini = 0.444\nsamples = 3\nvalue = [2, 1]"] ;
668 -> 670 ;
671 [label="gini = 0.0\nsamples = 2\nvalue = [2, 0]"] ;
670 -> 671 ;
672 [label="gini = 0.0\nsamples = 1\nvalue = [0, 1]"] ;
670 -> 672 ;
673 [label="X[3] <= 0.19\ngini = 0.116\nsamples = 81\nvalue = [76, 5]"] ;
639 -> 673 ;
674 [label="gini = 0.0\nsamples = 1\nvalue = [0, 1]"] ;
673 -> 674 ;
675 [label="X[2] <= 0.456\ngini = 0.095\nsamples = 80\nvalue = [76, 4]"] ;
673 -> 675 ;
676 [label="gini = 0.0\nsamples = 37\nvalue = [37, 0]"] ;
675 -> 676 ;
677 [label="X[3] <= 0.242\ngini = 0.169\nsamples = 43\nvalue = [39, 4]"] ;
675 -> 677 ;
678 [label="X[3] <= 0.224\ngini = 0.32\nsamples = 20\nvalue = [16, 4]"] ;
677 -> 678 ;
679 [label="X[3] <= 0.218\ngini = 0.117\nsamples = 16\nvalue = [15, 1]"] ;
678 -> 679 ;
680 [label="gini = 0.0\nsamples = 13\nvalue = [13, 0]"] ;
679 -> 680 ;
681 [label="X[0] <= 0.493\ngini = 0.444\nsamples = 3\nvalue = [2, 1]"] ;
679 -> 681 ;
682 [label="gini = 0.0\nsamples = 1\nvalue = [0, 1]"] ;
681 -> 682 ;
683 [label="gini = 0.0\nsamples = 2\nvalue = [2, 0]"] ;
681 -> 683 ;
684 [label="X[0] <= 0.604\ngini = 0.375\nsamples = 4\nvalue = [1, 3]"] ;
678 -> 684 ;
685 [label="gini = 0.0\nsamples = 3\nvalue = [0, 3]"] ;
684 -> 685 ;
686 [label="gini = 0.0\nsamples = 1\nvalue = [1, 0]"] ;
684 -> 686 ;
687 [label="gini = 0.0\nsamples = 23\nvalue = [23, 0]"] ;
677 -> 687 ;
688 [label="X[1] <= 0.328\ngini = 0.5\nsamples = 14\nvalue = [7, 7]"] ;
638 -> 688 ;
689 [label="X[0] <= 0.428\ngini = 0.375\nsamples = 8\nvalue = [2, 6]"] ;
688 -> 689 ;
690 [label="gini = 0.0\nsamples = 5\nvalue = [0, 5]"] ;
689 -> 690 ;
691 [label="X[14] <= 0.933\ngini = 0.444\nsamples = 3\nvalue = [2, 1]"] ;
689 -> 691 ;
692 [label="gini = 0.0\nsamples = 2\nvalue = [2, 0]"] ;
691 -> 692 ;
693 [label="gini = 0.0\nsamples = 1\nvalue = [0, 1]"] ;
691 -> 693 ;
694 [label="X[4] <= 0.6\ngini = 0.278\nsamples = 6\nvalue = [5, 1]"] ;
688 -> 694 ;
695 [label="gini = 0.0\nsamples = 1\nvalue = [0, 1]"] ;
694 -> 695 ;
696 [label="gini = 0.0\nsamples = 5\nvalue = [5, 0]"] ;
694 -> 696 ;
697 [label="X[3] <= 0.234\ngini = 0.169\nsamples = 183\nvalue = [166, 17]"] ;
591 -> 697 ;
698 [label="X[25] <= 0.402\ngini = 0.036\nsamples = 108\nvalue = [106, 2]"] ;
697 -> 698 ;
699 [label="gini = 0.0\nsamples = 97\nvalue = [97, 0]"] ;
698 -> 699 ;
700 [label="X[3] <= 0.196\ngini = 0.298\nsamples = 11\nvalue = [9, 2]"] ;
698 -> 700 ;
701 [label="gini = 0.0\nsamples = 2\nvalue = [0, 2]"] ;
700 -> 701 ;
702 [label="gini = 0.0\nsamples = 9\nvalue = [9, 0]"] ;
700 -> 702 ;
703 [label="X[24] <= 0.633\ngini = 0.32\nsamples = 75\nvalue = [60, 15]"] ;
697 -> 703 ;
704 [label="X[1] <= 0.21\ngini = 0.194\nsamples = 55\nvalue = [49, 6]"] ;
703 -> 704 ;
705 [label="gini = 0.0\nsamples = 1\nvalue = [0, 1]"] ;
704 -> 705 ;
706 [label="X[23] <= 0.232\ngini = 0.168\nsamples = 54\nvalue = [49, 5]"] ;
704 -> 706 ;
707 [label="X[20] <= 0.318\ngini = 0.14\nsamples = 53\nvalue = [49, 4]"] ;
706 -> 707 ;
708 [label="gini = 0.0\nsamples = 39\nvalue = [39, 0]"] ;
707 -> 708 ;
709 [label="X[20] <= 0.409\ngini = 0.408\nsamples = 14\nvalue = [10, 4]"] ;
707 -> 709 ;
710 [label="X[24] <= 0.414\ngini = 0.375\nsamples = 4\nvalue = [1, 3]"] ;
709 -> 710 ;
711 [label="gini = 0.0\nsamples = 1\nvalue = [1, 0]"] ;
710 -> 711 ;
712 [label="gini = 0.0\nsamples = 3\nvalue = [0, 3]"] ;
710 -> 712 ;
713 [label="X[24] <= 0.55\ngini = 0.18\nsamples = 10\nvalue = [9, 1]"] ;
709 -> 713 ;
714 [label="gini = 0.0\nsamples = 9\nvalue = [9, 0]"] ;
713 -> 714 ;
715 [label="gini = 0.0\nsamples = 1\nvalue = [0, 1]"] ;
713 -> 715 ;
716 [label="gini = 0.0\nsamples = 1\nvalue = [0, 1]"] ;
706 -> 716 ;
717 [label="X[13] <= -0.462\ngini = 0.495\nsamples = 20\nvalue = [11, 9]"] ;
703 -> 717 ;
718 [label="X[0] <= 0.435\ngini = 0.42\nsamples = 10\nvalue = [3, 7]"] ;
717 -> 718 ;
719 [label="X[25] <= 0.339\ngini = 0.444\nsamples = 3\nvalue = [2, 1]"] ;
718 -> 719 ;
720 [label="gini = 0.0\nsamples = 1\nvalue = [0, 1]"] ;
719 -> 720 ;
721 [label="gini = 0.0\nsamples = 2\nvalue = [2, 0]"] ;
719 -> 721 ;
722 [label="X[2] <= 0.346\ngini = 0.245\nsamples = 7\nvalue = [1, 6]"] ;
718 -> 722 ;
723 [label="gini = 0.0\nsamples = 1\nvalue = [1, 0]"] ;
722 -> 723 ;
724 [label="gini = 0.0\nsamples = 6\nvalue = [0, 6]"] ;
722 -> 724 ;
725 [label="X[24] <= 0.708\ngini = 0.32\nsamples = 10\nvalue = [8, 2]"] ;
717 -> 725 ;
726 [label="X[2] <= 0.406\ngini = 0.444\nsamples = 3\nvalue = [1, 2]"] ;
725 -> 726 ;
727 [label="gini = 0.0\nsamples = 2\nvalue = [0, 2]"] ;
726 -> 727 ;
728 [label="gini = 0.0\nsamples = 1\nvalue = [1, 0]"] ;
726 -> 728 ;
729 [label="gini = 0.0\nsamples = 7\nvalue = [7, 0]"] ;
725 -> 729 ;
730 [label="X[1] <= 0.22\ngini = 0.443\nsamples = 1046\nvalue = [347, 699]"] ;
2 -> 730 ;
731 [label="X[20] <= -0.45\ngini = 0.497\nsamples = 680\nvalue = [315, 365]"] ;
730 -> 731 ;
732 [label="X[0] <= 0.069\ngini = 0.477\nsamples = 481\nvalue = [189, 292]"] ;
731 -> 732 ;
733 [label="X[2] <= 0.014\ngini = 0.117\nsamples = 16\nvalue = [15, 1]"] ;
732 -> 733 ;
734 [label="X[13] <= 0.932\ngini = 0.219\nsamples = 8\nvalue = [7, 1]"] ;
733 -> 734 ;
735 [label="gini = 0.0\nsamples = 2\nvalue = [2, 0]"] ;
734 -> 735 ;
736 [label="X[4] <= 0.75\ngini = 0.278\nsamples = 6\nvalue = [5, 1]"] ;
734 -> 736 ;
737 [label="gini = 0.0\nsamples = 1\nvalue = [1, 0]"] ;
736 -> 737 ;
738 [label="gini = 0.32\nsamples = 5\nvalue = [4, 1]"] ;
736 -> 738 ;
739 [label="gini = 0.0\nsamples = 8\nvalue = [8, 0]"] ;
733 -> 739 ;
740 [label="X[5] <= 0.929\ngini = 0.468\nsamples = 465\nvalue = [174, 291]"] ;
732 -> 740 ;
741 [label="X[3] <= 0.025\ngini = 0.439\nsamples = 298\nvalue = [97, 201]"] ;
740 -> 741 ;
742 [label="X[0] <= 0.088\ngini = 0.372\nsamples = 146\nvalue = [36, 110]"] ;
741 -> 742 ;
743 [label="gini = 0.0\nsamples = 2\nvalue = [2, 0]"] ;
742 -> 743 ;
744 [label="X[2] <= 0.277\ngini = 0.361\nsamples = 144\nvalue = [34, 110]"] ;
742 -> 744 ;
745 [label="X[9] <= -0.5\ngini = 0.34\nsamples = 138\nvalue = [30, 108]"] ;
744 -> 745 ;
746 [label="X[22] <= -0.15\ngini = 0.363\nsamples = 126\nvalue = [30, 96]"] ;
745 -> 746 ;
747 [label="X[0] <= 0.219\ngini = 0.356\nsamples = 125\nvalue = [29, 96]"] ;
746 -> 747 ;
748 [label="X[5] <= 0.444\ngini = 0.306\nsamples = 90\nvalue = [17, 73]"] ;
747 -> 748 ;
749 [label="X[2] <= 0.209\ngini = 0.295\nsamples = 89\nvalue = [16, 73]"] ;
748 -> 749 ;
750 [label="X[2] <= 0.194\ngini = 0.339\nsamples = 74\nvalue = [16, 58]"] ;
749 -> 750 ;
751 [label="X[0] <= 0.163\ngini = 0.306\nsamples = 69\nvalue = [13, 56]"] ;
750 -> 751 ;
752 [label="X[0] <= 0.153\ngini = 0.375\nsamples = 40\nvalue = [10, 30]"] ;
751 -> 752 ;
753 [label="X[2] <= 0.185\ngini = 0.332\nsamples = 38\nvalue = [8, 30]"] ;
752 -> 753 ;
754 [label="X[2] <= 0.07\ngini = 0.307\nsamples = 37\nvalue = [7, 30]"] ;
753 -> 754 ;
755 [label="X[2] <= 0.058\ngini = 0.5\nsamples = 4\nvalue = [2, 2]"] ;
754 -> 755 ;
756 [label="gini = 0.0\nsamples = 2\nvalue = [0, 2]"] ;
755 -> 756 ;
757 [label="gini = 0.0\nsamples = 2\nvalue = [2, 0]"] ;
755 -> 757 ;
758 [label="X[2] <= 0.106\ngini = 0.257\nsamples = 33\nvalue = [5, 28]"] ;
754 -> 758 ;
759 [label="X[0] <= 0.102\ngini = 0.133\nsamples = 14\nvalue = [1, 13]"] ;
758 -> 759 ;
760 [label="X[0] <= 0.098\ngini = 0.375\nsamples = 4\nvalue = [1, 3]"] ;
759 -> 760 ;
761 [label="gini = 0.0\nsamples = 3\nvalue = [0, 3]"] ;
760 -> 761 ;
762 [label="gini = 0.0\nsamples = 1\nvalue = [1, 0]"] ;
760 -> 762 ;
763 [label="gini = 0.0\nsamples = 10\nvalue = [0, 10]"] ;
759 -> 763 ;
764 [label="X[2] <= 0.14\ngini = 0.332\nsamples = 19\nvalue = [4, 15]"] ;
758 -> 764 ;
765 [label="X[0] <= 0.115\ngini = 0.48\nsamples = 5\nvalue = [3, 2]"] ;
764 -> 765 ;
766 [label="gini = 0.0\nsamples = 2\nvalue = [0, 2]"] ;
765 -> 766 ;
767 [label="gini = 0.0\nsamples = 3\nvalue = [3, 0]"] ;
765 -> 767 ;
768 [label="X[0] <= 0.146\ngini = 0.133\nsamples = 14\nvalue = [1, 13]"] ;
764 -> 768 ;
769 [label="gini = 0.0\nsamples = 10\nvalue = [0, 10]"] ;
768 -> 769 ;
770 [label="X[2] <= 0.164\ngini = 0.375\nsamples = 4\nvalue = [1, 3]"] ;
768 -> 770 ;
771 [label="gini = 0.0\nsamples = 1\nvalue = [1, 0]"] ;
770 -> 771 ;
772 [label="gini = 0.0\nsamples = 3\nvalue = [0, 3]"] ;
770 -> 772 ;
773 [label="gini = 0.0\nsamples = 1\nvalue = [1, 0]"] ;
753 -> 773 ;
774 [label="gini = 0.0\nsamples = 2\nvalue = [2, 0]"] ;
752 -> 774 ;
775 [label="X[2] <= 0.15\ngini = 0.185\nsamples = 29\nvalue = [3, 26]"] ;
751 -> 775 ;
776 [label="X[2] <= 0.146\ngini = 0.305\nsamples = 16\nvalue = [3, 13]"] ;
775 -> 776 ;
777 [label="X[0] <= 0.194\ngini = 0.231\nsamples = 15\nvalue = [2, 13]"] ;
776 -> 777 ;
778 [label="gini = 0.0\nsamples = 7\nvalue = [0, 7]"] ;
777 -> 778 ;
779 [label="X[0] <= 0.206\ngini = 0.375\nsamples = 8\nvalue = [2, 6]"] ;
777 -> 779 ;
780 [label="gini = 0.0\nsamples = 2\nvalue = [2, 0]"] ;
779 -> 780 ;
781 [label="gini = 0.0\nsamples = 6\nvalue = [0, 6]"] ;
779 -> 781 ;
782 [label="gini = 0.0\nsamples = 1\nvalue = [1, 0]"] ;
776 -> 782 ;
783 [label="gini = 0.0\nsamples = 13\nvalue = [0, 13]"] ;
775 -> 783 ;
784 [label="X[0] <= 0.192\ngini = 0.48\nsamples = 5\nvalue = [3, 2]"] ;
750 -> 784 ;
785 [label="gini = 0.0\nsamples = 3\nvalue = [3, 0]"] ;
784 -> 785 ;
786 [label="gini = 0.0\nsamples = 2\nvalue = [0, 2]"] ;
784 -> 786 ;
787 [label="gini = 0.0\nsamples = 15\nvalue = [0, 15]"] ;
749 -> 787 ;
788 [label="gini = 0.0\nsamples = 1\nvalue = [1, 0]"] ;
748 -> 788 ;
789 [label="X[0] <= 0.228\ngini = 0.451\nsamples = 35\nvalue = [12, 23]"] ;
747 -> 789 ;
790 [label="gini = 0.0\nsamples = 8\nvalue = [8, 0]"] ;
789 -> 790 ;
791 [label="X[0] <= 0.258\ngini = 0.252\nsamples = 27\nvalue = [4, 23]"] ;
789 -> 791 ;
792 [label="X[2] <= 0.189\ngini = 0.105\nsamples = 18\nvalue = [1, 17]"] ;
791 -> 792 ;
793 [label="X[2] <= 0.175\ngini = 0.444\nsamples = 3\nvalue = [1, 2]"] ;
792 -> 793 ;
794 [label="gini = 0.0\nsamples = 2\nvalue = [0, 2]"] ;
793 -> 794 ;
795 [label="gini = 0.0\nsamples = 1\nvalue = [1, 0]"] ;
793 -> 795 ;
796 [label="gini = 0.0\nsamples = 15\nvalue = [0, 15]"] ;
792 -> 796 ;
797 [label="X[0] <= 0.279\ngini = 0.444\nsamples = 9\nvalue = [3, 6]"] ;
791 -> 797 ;
798 [label="X[1] <= 0.026\ngini = 0.375\nsamples = 4\nvalue = [3, 1]"] ;
797 -> 798 ;
799 [label="gini = 0.0\nsamples = 3\nvalue = [3, 0]"] ;
798 -> 799 ;
800 [label="gini = 0.0\nsamples = 1\nvalue = [0, 1]"] ;
798 -> 800 ;
801 [label="gini = 0.0\nsamples = 5\nvalue = [0, 5]"] ;
797 -> 801 ;
802 [label="gini = 0.0\nsamples = 1\nvalue = [1, 0]"] ;
746 -> 802 ;
803 [label="gini = 0.0\nsamples = 12\nvalue = [0, 12]"] ;
745 -> 803 ;
804 [label="X[2] <= 0.299\ngini = 0.444\nsamples = 6\nvalue = [4, 2]"] ;
744 -> 804 ;
805 [label="gini = 0.0\nsamples = 3\nvalue = [3, 0]"] ;
804 -> 805 ;
806 [label="X[2] <= 0.325\ngini = 0.444\nsamples = 3\nvalue = [1, 2]"] ;
804 -> 806 ;
807 [label="gini = 0.0\nsamples = 2\nvalue = [0, 2]"] ;
806 -> 807 ;
808 [label="gini = 0.0\nsamples = 1\nvalue = [1, 0]"] ;
806 -> 808 ;
809 [label="X[3] <= 0.044\ngini = 0.481\nsamples = 152\nvalue = [61, 91]"] ;
741 -> 809 ;
810 [label="X[3] <= 0.029\ngini = 0.482\nsamples = 47\nvalue = [28, 19]"] ;
809 -> 810 ;
811 [label="X[3] <= 0.026\ngini = 0.463\nsamples = 11\nvalue = [4, 7]"] ;
810 -> 811 ;
812 [label="gini = 0.0\nsamples = 2\nvalue = [2, 0]"] ;
811 -> 812 ;
813 [label="X[0] <= 0.198\ngini = 0.346\nsamples = 9\nvalue = [2, 7]"] ;
811 -> 813 ;
814 [label="gini = 0.0\nsamples = 2\nvalue = [2, 0]"] ;
813 -> 814 ;
815 [label="gini = 0.0\nsamples = 7\nvalue = [0, 7]"] ;
813 -> 815 ;
816 [label="X[0] <= 0.232\ngini = 0.444\nsamples = 36\nvalue = [24, 12]"] ;
810 -> 816 ;
817 [label="X[2] <= 0.188\ngini = 0.499\nsamples = 19\nvalue = [9, 10]"] ;
816 -> 817 ;
818 [label="X[2] <= 0.079\ngini = 0.444\nsamples = 12\nvalue = [8, 4]"] ;
817 -> 818 ;
819 [label="X[2] <= 0.061\ngini = 0.444\nsamples = 6\nvalue = [2, 4]"] ;
818 -> 819 ;
820 [label="gini = 0.0\nsamples = 1\nvalue = [1, 0]"] ;
819 -> 820 ;
821 [label="X[3] <= 0.034\ngini = 0.32\nsamples = 5\nvalue = [1, 4]"] ;
819 -> 821 ;
822 [label="gini = 0.0\nsamples = 3\nvalue = [0, 3]"] ;
821 -> 822 ;
823 [label="X[2] <= 0.069\ngini = 0.5\nsamples = 2\nvalue = [1, 1]"] ;
821 -> 823 ;
824 [label="gini = 0.0\nsamples = 1\nvalue = [1, 0]"] ;
823 -> 824 ;
825 [label="gini = 0.0\nsamples = 1\nvalue = [0, 1]"] ;
823 -> 825 ;
826 [label="gini = 0.0\nsamples = 6\nvalue = [6, 0]"] ;
818 -> 826 ;
827 [label="X[1] <= 0.04\ngini = 0.245\nsamples = 7\nvalue = [1, 6]"] ;
817 -> 827 ;
828 [label="gini = 0.0\nsamples = 5\nvalue = [0, 5]"] ;
827 -> 828 ;
829 [label="X[3] <= 0.036\ngini = 0.5\nsamples = 2\nvalue = [1, 1]"] ;
827 -> 829 ;
830 [label="gini = 0.0\nsamples = 1\nvalue = [0, 1]"] ;
829 -> 830 ;
831 [label="gini = 0.0\nsamples = 1\nvalue = [1, 0]"] ;
829 -> 831 ;
832 [label="X[2] <= 0.31\ngini = 0.208\nsamples = 17\nvalue = [15, 2]"] ;
816 -> 832 ;
833 [label="gini = 0.0\nsamples = 14\nvalue = [14, 0]"] ;
832 -> 833 ;
834 [label="X[0] <= 0.282\ngini = 0.444\nsamples = 3\nvalue = [1, 2]"] ;
832 -> 834 ;
835 [label="gini = 0.0\nsamples = 1\nvalue = [1, 0]"] ;
834 -> 835 ;
836 [label="gini = 0.0\nsamples = 2\nvalue = [0, 2]"] ;
834 -> 836 ;
837 [label="X[0] <= 0.386\ngini = 0.431\nsamples = 105\nvalue = [33, 72]"] ;
809 -> 837 ;
838 [label="X[3] <= 0.13\ngini = 0.396\nsamples = 92\nvalue = [25, 67]"] ;
837 -> 838 ;
839 [label="X[3] <= 0.07\ngini = 0.433\nsamples = 79\nvalue = [25, 54]"] ;
838 -> 839 ;
840 [label="X[0] <= 0.077\ngini = 0.335\nsamples = 47\nvalue = [10, 37]"] ;
839 -> 840 ;
841 [label="gini = 0.0\nsamples = 1\nvalue = [1, 0]"] ;
840 -> 841 ;
842 [label="X[1] <= 0.038\ngini = 0.315\nsamples = 46\nvalue = [9, 37]"] ;
840 -> 842 ;
843 [label="gini = 0.0\nsamples = 1\nvalue = [1, 0]"] ;
842 -> 843 ;
844 [label="X[3] <= 0.055\ngini = 0.292\nsamples = 45\nvalue = [8, 37]"] ;
842 -> 844 ;
845 [label="X[2] <= 0.218\ngini = 0.124\nsamples = 15\nvalue = [1, 14]"] ;
844 -> 845 ;
846 [label="gini = 0.0\nsamples = 10\nvalue = [0, 10]"] ;
845 -> 846 ;
847 [label="X[2] <= 0.242\ngini = 0.32\nsamples = 5\nvalue = [1, 4]"] ;
845 -> 847 ;
848 [label="gini = 0.0\nsamples = 1\nvalue = [1, 0]"] ;
847 -> 848 ;
849 [label="gini = 0.0\nsamples = 4\nvalue = [0, 4]"] ;
847 -> 849 ;
850 [label="X[1] <= 0.046\ngini = 0.358\nsamples = 30\nvalue = [7, 23]"] ;
844 -> 850 ;
851 [label="X[3] <= 0.056\ngini = 0.444\nsamples = 3\nvalue = [2, 1]"] ;
850 -> 851 ;
852 [label="X[0] <= 0.221\ngini = 0.5\nsamples = 2\nvalue = [1, 1]"] ;
851 -> 852 ;
853 [label="gini = 0.0\nsamples = 1\nvalue = [1, 0]"] ;
852 -> 853 ;
854 [label="gini = 0.0\nsamples = 1\nvalue = [0, 1]"] ;
852 -> 854 ;
855 [label="gini = 0.0\nsamples = 1\nvalue = [1, 0]"] ;
851 -> 855 ;
856 [label="X[2] <= 0.229\ngini = 0.302\nsamples = 27\nvalue = [5, 22]"] ;
850 -> 856 ;
857 [label="X[2] <= 0.218\ngini = 0.401\nsamples = 18\nvalue = [5, 13]"] ;
856 -> 857 ;
858 [label="X[1] <= 0.064\ngini = 0.305\nsamples = 16\nvalue = [3, 13]"] ;
857 -> 858 ;
859 [label="X[1] <= 0.051\ngini = 0.444\nsamples = 3\nvalue = [2, 1]"] ;
858 -> 859 ;
860 [label="gini = 0.0\nsamples = 1\nvalue = [0, 1]"] ;
859 -> 860 ;
861 [label="gini = 0.0\nsamples = 2\nvalue = [2, 0]"] ;
859 -> 861 ;
862 [label="X[1] <= 0.102\ngini = 0.142\nsamples = 13\nvalue = [1, 12]"] ;
858 -> 862 ;
863 [label="gini = 0.0\nsamples = 11\nvalue = [0, 11]"] ;
862 -> 863 ;
864 [label="X[2] <= 0.167\ngini = 0.5\nsamples = 2\nvalue = [1, 1]"] ;
862 -> 864 ;
865 [label="gini = 0.0\nsamples = 1\nvalue = [0, 1]"] ;
864 -> 865 ;
866 [label="gini = 0.0\nsamples = 1\nvalue = [1, 0]"] ;
864 -> 866 ;
867 [label="gini = 0.0\nsamples = 2\nvalue = [2, 0]"] ;
857 -> 867 ;
868 [label="gini = 0.0\nsamples = 9\nvalue = [0, 9]"] ;
856 -> 868 ;
869 [label="X[1] <= 0.087\ngini = 0.498\nsamples = 32\nvalue = [15, 17]"] ;
839 -> 869 ;
870 [label="X[0] <= 0.232\ngini = 0.375\nsamples = 12\nvalue = [9, 3]"] ;
869 -> 870 ;
871 [label="X[1] <= 0.074\ngini = 0.48\nsamples = 5\nvalue = [2, 3]"] ;
870 -> 871 ;
872 [label="X[0] <= 0.203\ngini = 0.375\nsamples = 4\nvalue = [1, 3]"] ;
871 -> 872 ;
873 [label="gini = 0.444\nsamples = 3\nvalue = [1, 2]"] ;
872 -> 873 ;
874 [label="gini = 0.0\nsamples = 1\nvalue = [0, 1]"] ;
872 -> 874 ;
875 [label="gini = 0.0\nsamples = 1\nvalue = [1, 0]"] ;
871 -> 875 ;
876 [label="gini = 0.0\nsamples = 7\nvalue = [7, 0]"] ;
870 -> 876 ;
877 [label="X[1] <= 0.122\ngini = 0.42\nsamples = 20\nvalue = [6, 14]"] ;
869 -> 877 ;
878 [label="X[10] <= 0.0\ngini = 0.231\nsamples = 15\nvalue = [2, 13]"] ;
877 -> 878 ;
879 [label="X[2] <= 0.299\ngini = 0.133\nsamples = 14\nvalue = [1, 13]"] ;
878 -> 879 ;
880 [label="gini = 0.0\nsamples = 10\nvalue = [0, 10]"] ;
879 -> 880 ;
881 [label="X[2] <= 0.311\ngini = 0.375\nsamples = 4\nvalue = [1, 3]"] ;
879 -> 881 ;
882 [label="gini = 0.0\nsamples = 1\nvalue = [1, 0]"] ;
881 -> 882 ;
883 [label="gini = 0.0\nsamples = 3\nvalue = [0, 3]"] ;
881 -> 883 ;
884 [label="gini = 0.0\nsamples = 1\nvalue = [1, 0]"] ;
878 -> 884 ;
885 [label="X[3] <= 0.099\ngini = 0.32\nsamples = 5\nvalue = [4, 1]"] ;
877 -> 885 ;
886 [label="gini = 0.0\nsamples = 1\nvalue = [0, 1]"] ;
885 -> 886 ;
887 [label="gini = 0.0\nsamples = 4\nvalue = [4, 0]"] ;
885 -> 887 ;
888 [label="gini = 0.0\nsamples = 13\nvalue = [0, 13]"] ;
838 -> 888 ;
889 [label="X[1] <= 0.137\ngini = 0.473\nsamples = 13\nvalue = [8, 5]"] ;
837 -> 889 ;
890 [label="gini = 0.0\nsamples = 5\nvalue = [5, 0]"] ;
889 -> 890 ;
891 [label="X[3] <= 0.166\ngini = 0.469\nsamples = 8\nvalue = [3, 5]"] ;
889 -> 891 ;
892 [label="gini = 0.0\nsamples = 4\nvalue = [0, 4]"] ;
891 -> 892 ;
893 [label="X[2] <= 0.345\ngini = 0.375\nsamples = 4\nvalue = [3, 1]"] ;
891 -> 893 ;
894 [label="gini = 0.0\nsamples = 3\nvalue = [3, 0]"] ;
893 -> 894 ;
895 [label="gini = 0.0\nsamples = 1\nvalue = [0, 1]"] ;
893 -> 895 ;
896 [label="X[15] <= 0.358\ngini = 0.497\nsamples = 167\nvalue = [77, 90]"] ;
740 -> 896 ;
897 [label="X[11] <= -0.333\ngini = 0.157\nsamples = 35\nvalue = [32, 3]"] ;
896 -> 897 ;
898 [label="X[0] <= 0.288\ngini = 0.49\nsamples = 7\nvalue = [4, 3]"] ;
897 -> 898 ;
899 [label="X[0] <= 0.148\ngini = 0.32\nsamples = 5\nvalue = [4, 1]"] ;
898 -> 899 ;
900 [label="gini = 0.0\nsamples = 1\nvalue = [0, 1]"] ;
899 -> 900 ;
901 [label="gini = 0.0\nsamples = 4\nvalue = [4, 0]"] ;
899 -> 901 ;
902 [label="gini = 0.0\nsamples = 2\nvalue = [0, 2]"] ;
898 -> 902 ;
903 [label="gini = 0.0\nsamples = 28\nvalue = [28, 0]"] ;
897 -> 903 ;
904 [label="X[14] <= 0.772\ngini = 0.449\nsamples = 132\nvalue = [45, 87]"] ;
896 -> 904 ;
905 [label="gini = 0.0\nsamples = 12\nvalue = [0, 12]"] ;
904 -> 905 ;
906 [label="X[12] <= 0.859\ngini = 0.469\nsamples = 120\nvalue = [45, 75]"] ;
904 -> 906 ;
907 [label="X[2] <= 0.153\ngini = 0.278\nsamples = 6\nvalue = [5, 1]"] ;
906 -> 907 ;
908 [label="X[15] <= 0.781\ngini = 0.5\nsamples = 2\nvalue = [1, 1]"] ;
907 -> 908 ;
909 [label="gini = 0.0\nsamples = 1\nvalue = [0, 1]"] ;
908 -> 909 ;
910 [label="gini = 0.0\nsamples = 1\nvalue = [1, 0]"] ;
908 -> 910 ;
911 [label="gini = 0.0\nsamples = 4\nvalue = [4, 0]"] ;
907 -> 911 ;
912 [label="X[0] <= 0.152\ngini = 0.456\nsamples = 114\nvalue = [40, 74]"] ;
906 -> 912 ;
913 [label="X[0] <= 0.111\ngini = 0.278\nsamples = 24\nvalue = [4, 20]"] ;
912 -> 913 ;
914 [label="X[0] <= 0.084\ngini = 0.494\nsamples = 9\nvalue = [4, 5]"] ;
913 -> 914 ;
915 [label="gini = 0.0\nsamples = 3\nvalue = [0, 3]"] ;
914 -> 915 ;
916 [label="X[15] <= 0.905\ngini = 0.444\nsamples = 6\nvalue = [4, 2]"] ;
914 -> 916 ;
917 [label="gini = 0.0\nsamples = 2\nvalue = [0, 2]"] ;
916 -> 917 ;
918 [label="gini = 0.0\nsamples = 4\nvalue = [4, 0]"] ;
916 -> 918 ;
919 [label="gini = 0.0\nsamples = 15\nvalue = [0, 15]"] ;
913 -> 919 ;
920 [label="X[2] <= 0.186\ngini = 0.48\nsamples = 90\nvalue = [36, 54]"] ;
912 -> 920 ;
921 [label="X[2] <= 0.156\ngini = 0.488\nsamples = 38\nvalue = [22, 16]"] ;
920 -> 921 ;
922 [label="X[0] <= 0.162\ngini = 0.488\nsamples = 26\nvalue = [11, 15]"] ;
921 -> 922 ;
923 [label="X[2] <= 0.135\ngini = 0.32\nsamples = 5\nvalue = [4, 1]"] ;
922 -> 923 ;
924 [label="gini = 0.0\nsamples = 4\nvalue = [4, 0]"] ;
923 -> 924 ;
925 [label="gini = 0.0\nsamples = 1\nvalue = [0, 1]"] ;
923 -> 925 ;
926 [label="X[2] <= 0.089\ngini = 0.444\nsamples = 21\nvalue = [7, 14]"] ;
922 -> 926 ;
927 [label="gini = 0.0\nsamples = 6\nvalue = [0, 6]"] ;
926 -> 927 ;
928 [label="X[0] <= 0.172\ngini = 0.498\nsamples = 15\nvalue = [7, 8]"] ;
926 -> 928 ;
929 [label="gini = 0.0\nsamples = 3\nvalue = [0, 3]"] ;
928 -> 929 ;
930 [label="X[1] <= 0.058\ngini = 0.486\nsamples = 12\nvalue = [7, 5]"] ;
928 -> 930 ;
931 [label="X[0] <= 0.215\ngini = 0.42\nsamples = 10\nvalue = [7, 3]"] ;
930 -> 931 ;
932 [label="X[2] <= 0.122\ngini = 0.49\nsamples = 7\nvalue = [4, 3]"] ;
931 -> 932 ;
933 [label="gini = 0.0\nsamples = 2\nvalue = [2, 0]"] ;
932 -> 933 ;
934 [label="X[2] <= 0.138\ngini = 0.48\nsamples = 5\nvalue = [2, 3]"] ;
932 -> 934 ;
935 [label="gini = 0.0\nsamples = 2\nvalue = [0, 2]"] ;
934 -> 935 ;
936 [label="X[1] <= 0.017\ngini = 0.444\nsamples = 3\nvalue = [2, 1]"] ;
934 -> 936 ;
937 [label="X[0] <= 0.191\ngini = 0.5\nsamples = 2\nvalue = [1, 1]"] ;
936 -> 937 ;
938 [label="gini = 0.0\nsamples = 1\nvalue = [0, 1]"] ;
937 -> 938 ;
939 [label="gini = 0.0\nsamples = 1\nvalue = [1, 0]"] ;
937 -> 939 ;
940 [label="gini = 0.0\nsamples = 1\nvalue = [1, 0]"] ;
936 -> 940 ;
941 [label="gini = 0.0\nsamples = 3\nvalue = [3, 0]"] ;
931 -> 941 ;
942 [label="gini = 0.0\nsamples = 2\nvalue = [0, 2]"] ;
930 -> 942 ;
943 [label="X[3] <= 0.039\ngini = 0.153\nsamples = 12\nvalue = [11, 1]"] ;
921 -> 943 ;
944 [label="gini = 0.0\nsamples = 10\nvalue = [10, 0]"] ;
943 -> 944 ;
945 [label="X[2] <= 0.165\ngini = 0.5\nsamples = 2\nvalue = [1, 1]"] ;
943 -> 945 ;
946 [label="gini = 0.0\nsamples = 1\nvalue = [1, 0]"] ;
945 -> 946 ;
947 [label="gini = 0.0\nsamples = 1\nvalue = [0, 1]"] ;
945 -> 947 ;
948 [label="X[15] <= 0.881\ngini = 0.393\nsamples = 52\nvalue = [14, 38]"] ;
920 -> 948 ;
949 [label="gini = 0.0\nsamples = 8\nvalue = [0, 8]"] ;
948 -> 949 ;
950 [label="X[2] <= 0.192\ngini = 0.434\nsamples = 44\nvalue = [14, 30]"] ;
948 -> 950 ;
951 [label="gini = 0.0\nsamples = 5\nvalue = [0, 5]"] ;
950 -> 951 ;
952 [label="X[2] <= 0.209\ngini = 0.46\nsamples = 39\nvalue = [14, 25]"] ;
950 -> 952 ;
953 [label="gini = 0.0\nsamples = 3\nvalue = [3, 0]"] ;
952 -> 953 ;
954 [label="X[0] <= 0.202\ngini = 0.424\nsamples = 36\nvalue = [11, 25]"] ;
952 -> 954 ;
955 [label="X[0] <= 0.165\ngini = 0.375\nsamples = 4\nvalue = [3, 1]"] ;
954 -> 955 ;
956 [label="gini = 0.0\nsamples = 1\nvalue = [0, 1]"] ;
955 -> 956 ;
957 [label="gini = 0.0\nsamples = 3\nvalue = [3, 0]"] ;
955 -> 957 ;
958 [label="X[1] <= 0.046\ngini = 0.375\nsamples = 32\nvalue = [8, 24]"] ;
954 -> 958 ;
959 [label="X[0] <= 0.297\ngini = 0.18\nsamples = 20\nvalue = [2, 18]"] ;
958 -> 959 ;
960 [label="X[0] <= 0.228\ngini = 0.1\nsamples = 19\nvalue = [1, 18]"] ;
959 -> 960 ;
961 [label="X[2] <= 0.24\ngini = 0.444\nsamples = 3\nvalue = [1, 2]"] ;
960 -> 961 ;
962 [label="gini = 0.0\nsamples = 2\nvalue = [0, 2]"] ;
961 -> 962 ;
963 [label="gini = 0.0\nsamples = 1\nvalue = [1, 0]"] ;
961 -> 963 ;
964 [label="gini = 0.0\nsamples = 16\nvalue = [0, 16]"] ;
960 -> 964 ;
965 [label="gini = 0.0\nsamples = 1\nvalue = [1, 0]"] ;
959 -> 965 ;
966 [label="X[2] <= 0.253\ngini = 0.5\nsamples = 12\nvalue = [6, 6]"] ;
958 -> 966 ;
967 [label="X[0] <= 0.317\ngini = 0.32\nsamples = 5\nvalue = [4, 1]"] ;
966 -> 967 ;
968 [label="gini = 0.0\nsamples = 4\nvalue = [4, 0]"] ;
967 -> 968 ;
969 [label="gini = 0.0\nsamples = 1\nvalue = [0, 1]"] ;
967 -> 969 ;
970 [label="X[0] <= 0.354\ngini = 0.408\nsamples = 7\nvalue = [2, 5]"] ;
966 -> 970 ;
971 [label="gini = 0.0\nsamples = 4\nvalue = [0, 4]"] ;
970 -> 971 ;
972 [label="X[1] <= 0.13\ngini = 0.444\nsamples = 3\nvalue = [2, 1]"] ;
970 -> 972 ;
973 [label="gini = 0.0\nsamples = 1\nvalue = [0, 1]"] ;
972 -> 973 ;
974 [label="gini = 0.0\nsamples = 2\nvalue = [2, 0]"] ;
972 -> 974 ;
975 [label="X[20] <= 0.714\ngini = 0.465\nsamples = 199\nvalue = [126, 73]"] ;
731 -> 975 ;
976 [label="X[2] <= 0.159\ngini = 0.415\nsamples = 170\nvalue = [120, 50]"] ;
975 -> 976 ;
977 [label="X[21] <= 0.279\ngini = 0.481\nsamples = 77\nvalue = [46, 31]"] ;
976 -> 977 ;
978 [label="X[20] <= 0.523\ngini = 0.5\nsamples = 53\nvalue = [27, 26]"] ;
977 -> 978 ;
979 [label="X[21] <= 0.15\ngini = 0.444\nsamples = 39\nvalue = [26, 13]"] ;
978 -> 979 ;
980 [label="X[21] <= 0.069\ngini = 0.499\nsamples = 25\nvalue = [12, 13]"] ;
979 -> 980 ;
981 [label="X[0] <= 0.117\ngini = 0.245\nsamples = 7\nvalue = [6, 1]"] ;
980 -> 981 ;
982 [label="gini = 0.0\nsamples = 1\nvalue = [0, 1]"] ;
981 -> 982 ;
983 [label="gini = 0.0\nsamples = 6\nvalue = [6, 0]"] ;
981 -> 983 ;
984 [label="X[21] <= 0.095\ngini = 0.444\nsamples = 18\nvalue = [6, 12]"] ;
980 -> 984 ;
985 [label="X[0] <= 0.163\ngini = 0.18\nsamples = 10\nvalue = [1, 9]"] ;
984 -> 985 ;
986 [label="gini = 0.0\nsamples = 6\nvalue = [0, 6]"] ;
985 -> 986 ;
987 [label="X[0] <= 0.194\ngini = 0.375\nsamples = 4\nvalue = [1, 3]"] ;
985 -> 987 ;
988 [label="gini = 0.0\nsamples = 1\nvalue = [1, 0]"] ;
987 -> 988 ;
989 [label="gini = 0.0\nsamples = 3\nvalue = [0, 3]"] ;
987 -> 989 ;
990 [label="X[0] <= 0.141\ngini = 0.469\nsamples = 8\nvalue = [5, 3]"] ;
984 -> 990 ;
991 [label="gini = 0.0\nsamples = 4\nvalue = [4, 0]"] ;
990 -> 991 ;
992 [label="X[3] <= 0.072\ngini = 0.375\nsamples = 4\nvalue = [1, 3]"] ;
990 -> 992 ;
993 [label="gini = 0.0\nsamples = 3\nvalue = [0, 3]"] ;
992 -> 993 ;
994 [label="gini = 0.0\nsamples = 1\nvalue = [1, 0]"] ;
992 -> 994 ;
995 [label="gini = 0.0\nsamples = 14\nvalue = [14, 0]"] ;
979 -> 995 ;
996 [label="X[0] <= 0.128\ngini = 0.133\nsamples = 14\nvalue = [1, 13]"] ;
978 -> 996 ;
997 [label="gini = 0.0\nsamples = 1\nvalue = [1, 0]"] ;
996 -> 997 ;
998 [label="gini = 0.0\nsamples = 13\nvalue = [0, 13]"] ;
996 -> 998 ;
999 [label="X[21] <= 0.393\ngini = 0.33\nsamples = 24\nvalue = [19, 5]"] ;
977 -> 999 ;
1000 [label="gini = 0.0\nsamples = 11\nvalue = [11, 0]"] ;
999 -> 1000 ;
1001 [label="X[0] <= 0.123\ngini = 0.473\nsamples = 13\nvalue = [8, 5]"] ;
999 -> 1001 ;
1002 [label="gini = 0.0\nsamples = 4\nvalue = [4, 0]"] ;
1001 -> 1002 ;
1003 [label="X[0] <= 0.138\ngini = 0.494\nsamples = 9\nvalue = [4, 5]"] ;
1001 -> 1003 ;
1004 [label="gini = 0.0\nsamples = 3\nvalue = [0, 3]"] ;
1003 -> 1004 ;
1005 [label="X[23] <= -0.294\ngini = 0.444\nsamples = 6\nvalue = [4, 2]"] ;
1003 -> 1005 ;
1006 [label="X[3] <= 0.013\ngini = 0.32\nsamples = 5\nvalue = [4, 1]"] ;
1005 -> 1006 ;
1007 [label="X[15] <= -0.419\ngini = 0.5\nsamples = 2\nvalue = [1, 1]"] ;
1006 -> 1007 ;
1008 [label="gini = 0.0\nsamples = 1\nvalue = [0, 1]"] ;
1007 -> 1008 ;
1009 [label="gini = 0.0\nsamples = 1\nvalue = [1, 0]"] ;
1007 -> 1009 ;
1010 [label="gini = 0.0\nsamples = 3\nvalue = [3, 0]"] ;
1006 -> 1010 ;
1011 [label="gini = 0.0\nsamples = 1\nvalue = [0, 1]"] ;
1005 -> 1011 ;
1012 [label="X[2] <= 0.259\ngini = 0.325\nsamples = 93\nvalue = [74, 19]"] ;
976 -> 1012 ;
1013 [label="X[3] <= 0.075\ngini = 0.219\nsamples = 64\nvalue = [56, 8]"] ;
1012 -> 1013 ;
1014 [label="X[21] <= 0.121\ngini = 0.168\nsamples = 54\nvalue = [49, 5]"] ;
1013 -> 1014 ;
1015 [label="X[14] <= 0.955\ngini = 0.375\nsamples = 16\nvalue = [12, 4]"] ;
1014 -> 1015 ;
1016 [label="X[1] <= 0.013\ngini = 0.26\nsamples = 13\nvalue = [11, 2]"] ;
1015 -> 1016 ;
1017 [label="X[2] <= 0.189\ngini = 0.375\nsamples = 8\nvalue = [6, 2]"] ;
1016 -> 1017 ;
1018 [label="gini = 0.0\nsamples = 4\nvalue = [4, 0]"] ;
1017 -> 1018 ;
1019 [label="X[2] <= 0.215\ngini = 0.5\nsamples = 4\nvalue = [2, 2]"] ;
1017 -> 1019 ;
1020 [label="gini = 0.0\nsamples = 2\nvalue = [0, 2]"] ;
1019 -> 1020 ;
1021 [label="gini = 0.0\nsamples = 2\nvalue = [2, 0]"] ;
1019 -> 1021 ;
1022 [label="gini = 0.0\nsamples = 5\nvalue = [5, 0]"] ;
1016 -> 1022 ;
1023 [label="X[2] <= 0.219\ngini = 0.444\nsamples = 3\nvalue = [1, 2]"] ;
1015 -> 1023 ;
1024 [label="gini = 0.0\nsamples = 2\nvalue = [0, 2]"] ;
1023 -> 1024 ;
1025 [label="gini = 0.0\nsamples = 1\nvalue = [1, 0]"] ;
1023 -> 1025 ;
1026 [label="X[16] <= 0.575\ngini = 0.051\nsamples = 38\nvalue = [37, 1]"] ;
1014 -> 1026 ;
1027 [label="gini = 0.0\nsamples = 36\nvalue = [36, 0]"] ;
1026 -> 1027 ;
1028 [label="X[0] <= 0.176\ngini = 0.5\nsamples = 2\nvalue = [1, 1]"] ;
1026 -> 1028 ;
1029 [label="gini = 0.0\nsamples = 1\nvalue = [1, 0]"] ;
1028 -> 1029 ;
1030 [label="gini = 0.0\nsamples = 1\nvalue = [0, 1]"] ;
1028 -> 1030 ;
1031 [label="X[0] <= 0.312\ngini = 0.42\nsamples = 10\nvalue = [7, 3]"] ;
1013 -> 1031 ;
1032 [label="X[0] <= 0.261\ngini = 0.375\nsamples = 4\nvalue = [1, 3]"] ;
1031 -> 1032 ;
1033 [label="gini = 0.0\nsamples = 1\nvalue = [1, 0]"] ;
1032 -> 1033 ;
1034 [label="gini = 0.0\nsamples = 3\nvalue = [0, 3]"] ;
1032 -> 1034 ;
1035 [label="gini = 0.0\nsamples = 6\nvalue = [6, 0]"] ;
1031 -> 1035 ;
1036 [label="X[1] <= 0.053\ngini = 0.471\nsamples = 29\nvalue = [18, 11]"] ;
1012 -> 1036 ;
1037 [label="X[3] <= 0.039\ngini = 0.499\nsamples = 21\nvalue = [10, 11]"] ;
1036 -> 1037 ;
1038 [label="X[0] <= 0.21\ngini = 0.469\nsamples = 16\nvalue = [10, 6]"] ;
1037 -> 1038 ;
1039 [label="X[0] <= 0.142\ngini = 0.278\nsamples = 6\nvalue = [1, 5]"] ;
1038 -> 1039 ;
1040 [label="gini = 0.0\nsamples = 1\nvalue = [1, 0]"] ;
1039 -> 1040 ;
1041 [label="gini = 0.0\nsamples = 5\nvalue = [0, 5]"] ;
1039 -> 1041 ;
1042 [label="X[2] <= 0.326\ngini = 0.18\nsamples = 10\nvalue = [9, 1]"] ;
1038 -> 1042 ;
1043 [label="gini = 0.0\nsamples = 8\nvalue = [8, 0]"] ;
1042 -> 1043 ;
1044 [label="X[20] <= 0.373\ngini = 0.5\nsamples = 2\nvalue = [1, 1]"] ;
1042 -> 1044 ;
1045 [label="gini = 0.0\nsamples = 1\nvalue = [1, 0]"] ;
1044 -> 1045 ;
1046 [label="gini = 0.0\nsamples = 1\nvalue = [0, 1]"] ;
1044 -> 1046 ;
1047 [label="gini = 0.0\nsamples = 5\nvalue = [0, 5]"] ;
1037 -> 1047 ;
1048 [label="gini = 0.0\nsamples = 8\nvalue = [8, 0]"] ;
1036 -> 1048 ;
1049 [label="X[0] <= 0.258\ngini = 0.328\nsamples = 29\nvalue = [6, 23]"] ;
975 -> 1049 ;
1050 [label="X[21] <= 0.536\ngini = 0.153\nsamples = 24\nvalue = [2, 22]"] ;
1049 -> 1050 ;
1051 [label="gini = 0.0\nsamples = 22\nvalue = [0, 22]"] ;
1050 -> 1051 ;
1052 [label="gini = 0.0\nsamples = 2\nvalue = [2, 0]"] ;
1050 -> 1052 ;
1053 [label="X[21] <= 0.558\ngini = 0.32\nsamples = 5\nvalue = [4, 1]"] ;
1049 -> 1053 ;
1054 [label="gini = 0.0\nsamples = 4\nvalue = [4, 0]"] ;
1053 -> 1054 ;
1055 [label="gini = 0.0\nsamples = 1\nvalue = [0, 1]"] ;
1053 -> 1055 ;
1056 [label="X[2] <= 0.447\ngini = 0.16\nsamples = 366\nvalue = [32, 334]"] ;
730 -> 1056 ;
1057 [label="X[3] <= 0.129\ngini = 0.132\nsamples = 353\nvalue = [25, 328]"] ;
1056 -> 1057 ;
1058 [label="X[0] <= 0.359\ngini = 0.408\nsamples = 28\nvalue = [8, 20]"] ;
1057 -> 1058 ;
1059 [label="X[0] <= 0.302\ngini = 0.117\nsamples = 16\nvalue = [1, 15]"] ;
1058 -> 1059 ;
1060 [label="X[11] <= 0.0\ngini = 0.5\nsamples = 2\nvalue = [1, 1]"] ;
1059 -> 1060 ;
1061 [label="gini = 0.0\nsamples = 1\nvalue = [1, 0]"] ;
1060 -> 1061 ;
1062 [label="gini = 0.0\nsamples = 1\nvalue = [0, 1]"] ;
1060 -> 1062 ;
1063 [label="gini = 0.0\nsamples = 14\nvalue = [0, 14]"] ;
1059 -> 1063 ;
1064 [label="X[9] <= -0.333\ngini = 0.486\nsamples = 12\nvalue = [7, 5]"] ;
1058 -> 1064 ;
1065 [label="X[1] <= 0.26\ngini = 0.469\nsamples = 8\nvalue = [3, 5]"] ;
1064 -> 1065 ;
1066 [label="gini = 0.0\nsamples = 2\nvalue = [2, 0]"] ;
1065 -> 1066 ;
1067 [label="X[3] <= 0.127\ngini = 0.278\nsamples = 6\nvalue = [1, 5]"] ;
1065 -> 1067 ;
1068 [label="gini = 0.0\nsamples = 5\nvalue = [0, 5]"] ;
1067 -> 1068 ;
1069 [label="gini = 0.0\nsamples = 1\nvalue = [1, 0]"] ;
1067 -> 1069 ;
1070 [label="gini = 0.0\nsamples = 4\nvalue = [4, 0]"] ;
1064 -> 1070 ;
1071 [label="X[0] <= 0.463\ngini = 0.099\nsamples = 325\nvalue = [17, 308]"] ;
1057 -> 1071 ;
1072 [label="X[20] <= 0.573\ngini = 0.034\nsamples = 229\nvalue = [4, 225]"] ;
1071 -> 1072 ;
1073 [label="X[1] <= 0.242\ngini = 0.009\nsamples = 214\nvalue = [1, 213]"] ;
1072 -> 1073 ;
1074 [label="X[1] <= 0.241\ngini = 0.117\nsamples = 16\nvalue = [1, 15]"] ;
1073 -> 1074 ;
1075 [label="gini = 0.0\nsamples = 15\nvalue = [0, 15]"] ;
1074 -> 1075 ;
1076 [label="gini = 0.0\nsamples = 1\nvalue = [1, 0]"] ;
1074 -> 1076 ;
1077 [label="gini = 0.0\nsamples = 198\nvalue = [0, 198]"] ;
1073 -> 1077 ;
1078 [label="X[2] <= 0.16\ngini = 0.32\nsamples = 15\nvalue = [3, 12]"] ;
1072 -> 1078 ;
1079 [label="gini = 0.0\nsamples = 2\nvalue = [2, 0]"] ;
1078 -> 1079 ;
1080 [label="X[2] <= 0.345\ngini = 0.142\nsamples = 13\nvalue = [1, 12]"] ;
1078 -> 1080 ;
1081 [label="gini = 0.0\nsamples = 12\nvalue = [0, 12]"] ;
1080 -> 1081 ;
1082 [label="gini = 0.0\nsamples = 1\nvalue = [1, 0]"] ;
1080 -> 1082 ;
1083 [label="X[3] <= 0.151\ngini = 0.234\nsamples = 96\nvalue = [13, 83]"] ;
1071 -> 1083 ;
1084 [label="X[1] <= 0.289\ngini = 0.49\nsamples = 7\nvalue = [3, 4]"] ;
1083 -> 1084 ;
1085 [label="gini = 0.0\nsamples = 4\nvalue = [0, 4]"] ;
1084 -> 1085 ;
1086 [label="gini = 0.0\nsamples = 3\nvalue = [3, 0]"] ;
1084 -> 1086 ;
1087 [label="X[0] <= 0.496\ngini = 0.199\nsamples = 89\nvalue = [10, 79]"] ;
1083 -> 1087 ;
1088 [label="gini = 0.0\nsamples = 26\nvalue = [0, 26]"] ;
1087 -> 1088 ;
1089 [label="X[0] <= 0.602\ngini = 0.267\nsamples = 63\nvalue = [10, 53]"] ;
1087 -> 1089 ;
1090 [label="X[3] <= 0.193\ngini = 0.369\nsamples = 41\nvalue = [10, 31]"] ;
1089 -> 1090 ;
1091 [label="X[0] <= 0.595\ngini = 0.494\nsamples = 9\nvalue = [5, 4]"] ;
1090 -> 1091 ;
1092 [label="X[1] <= 0.35\ngini = 0.278\nsamples = 6\nvalue = [5, 1]"] ;
1091 -> 1092 ;
1093 [label="gini = 0.0\nsamples = 1\nvalue = [0, 1]"] ;
1092 -> 1093 ;
1094 [label="gini = 0.0\nsamples = 5\nvalue = [5, 0]"] ;
1092 -> 1094 ;
1095 [label="gini = 0.0\nsamples = 3\nvalue = [0, 3]"] ;
1091 -> 1095 ;
1096 [label="X[3] <= 0.255\ngini = 0.264\nsamples = 32\nvalue = [5, 27]"] ;
1090 -> 1096 ;
1097 [label="X[0] <= 0.498\ngini = 0.225\nsamples = 31\nvalue = [4, 27]"] ;
1096 -> 1097 ;
1098 [label="gini = 0.0\nsamples = 1\nvalue = [1, 0]"] ;
1097 -> 1098 ;
1099 [label="X[3] <= 0.237\ngini = 0.18\nsamples = 30\nvalue = [3, 27]"] ;
1097 -> 1099 ;
1100 [label="X[1] <= 0.436\ngini = 0.291\nsamples = 17\nvalue = [3, 14]"] ;
1099 -> 1100 ;
1101 [label="X[4] <= -0.375\ngini = 0.133\nsamples = 14\nvalue = [1, 13]"] ;
1100 -> 1101 ;
1102 [label="gini = 0.0\nsamples = 10\nvalue = [0, 10]"] ;
1101 -> 1102 ;
1103 [label="X[15] <= 0.431\ngini = 0.375\nsamples = 4\nvalue = [1, 3]"] ;
1101 -> 1103 ;
1104 [label="gini = 0.0\nsamples = 1\nvalue = [1, 0]"] ;
1103 -> 1104 ;
1105 [label="gini = 0.0\nsamples = 3\nvalue = [0, 3]"] ;
1103 -> 1105 ;
1106 [label="X[3] <= 0.218\ngini = 0.444\nsamples = 3\nvalue = [2, 1]"] ;
1100 -> 1106 ;
1107 [label="gini = 0.0\nsamples = 1\nvalue = [0, 1]"] ;
1106 -> 1107 ;
1108 [label="gini = 0.0\nsamples = 2\nvalue = [2, 0]"] ;
1106 -> 1108 ;
1109 [label="gini = 0.0\nsamples = 13\nvalue = [0, 13]"] ;
1099 -> 1109 ;
1110 [label="gini = 0.0\nsamples = 1\nvalue = [1, 0]"] ;
1096 -> 1110 ;
1111 [label="gini = 0.0\nsamples = 22\nvalue = [0, 22]"] ;
1089 -> 1111 ;
1112 [label="X[20] <= 0.45\ngini = 0.497\nsamples = 13\nvalue = [7, 6]"] ;
1056 -> 1112 ;
1113 [label="gini = 0.0\nsamples = 5\nvalue = [0, 5]"] ;
1112 -> 1113 ;
1114 [label="X[3] <= 0.245\ngini = 0.219\nsamples = 8\nvalue = [7, 1]"] ;
1112 -> 1114 ;
1115 [label="gini = 0.0\nsamples = 7\nvalue = [7, 0]"] ;
1114 -> 1115 ;
1116 [label="gini = 0.0\nsamples = 1\nvalue = [0, 1]"] ;
1114 -> 1116 ;
1117 [label="X[22] <= 0.318\ngini = 0.087\nsamples = 1341\nvalue = [61, 1280]"] ;
1 -> 1117 ;
1118 [label="X[0] <= 0.655\ngini = 0.073\nsamples = 1266\nvalue = [48, 1218]"] ;
1117 -> 1118 ;
1119 [label="X[25] <= 0.354\ngini = 0.072\nsamples = 1265\nvalue = [47, 1218]"] ;
1118 -> 1119 ;
1120 [label="X[20] <= 0.955\ngini = 0.119\nsamples = 537\nvalue = [34, 503]"] ;
1119 -> 1120 ;
1121 [label="X[3] <= 0.176\ngini = 0.367\nsamples = 33\nvalue = [8, 25]"] ;
1120 -> 1121 ;
1122 [label="X[3] <= 0.025\ngini = 0.5\nsamples = 16\nvalue = [8, 8]"] ;
1121 -> 1122 ;
1123 [label="gini = 0.0\nsamples = 6\nvalue = [0, 6]"] ;
1122 -> 1123 ;
1124 [label="X[16] <= -0.357\ngini = 0.32\nsamples = 10\nvalue = [8, 2]"] ;
1122 -> 1124 ;
1125 [label="X[2] <= 0.263\ngini = 0.198\nsamples = 9\nvalue = [8, 1]"] ;
1124 -> 1125 ;
1126 [label="X[2] <= 0.242\ngini = 0.444\nsamples = 3\nvalue = [2, 1]"] ;
1125 -> 1126 ;
1127 [label="gini = 0.0\nsamples = 2\nvalue = [2, 0]"] ;
1126 -> 1127 ;
1128 [label="gini = 0.0\nsamples = 1\nvalue = [0, 1]"] ;
1126 -> 1128 ;
1129 [label="gini = 0.0\nsamples = 6\nvalue = [6, 0]"] ;
1125 -> 1129 ;
1130 [label="gini = 0.0\nsamples = 1\nvalue = [0, 1]"] ;
1124 -> 1130 ;
1131 [label="gini = 0.0\nsamples = 17\nvalue = [0, 17]"] ;
1121 -> 1131 ;
1132 [label="X[25] <= -0.5\ngini = 0.098\nsamples = 504\nvalue = [26, 478]"] ;
1120 -> 1132 ;
1133 [label="X[15] <= 0.901\ngini = 0.064\nsamples = 451\nvalue = [15, 436]"] ;
1132 -> 1133 ;
1134 [label="X[2] <= 0.13\ngini = 0.045\nsamples = 431\nvalue = [10, 421]"] ;
1133 -> 1134 ;
1135 [label="gini = 0.0\nsamples = 177\nvalue = [0, 177]"] ;
1134 -> 1135 ;
1136 [label="X[2] <= 0.137\ngini = 0.076\nsamples = 254\nvalue = [10, 244]"] ;
1134 -> 1136 ;
1137 [label="X[3] <= 0.032\ngini = 0.42\nsamples = 10\nvalue = [3, 7]"] ;
1136 -> 1137 ;
1138 [label="gini = 0.0\nsamples = 3\nvalue = [3, 0]"] ;
1137 -> 1138 ;
1139 [label="gini = 0.0\nsamples = 7\nvalue = [0, 7]"] ;
1137 -> 1139 ;
1140 [label="X[3] <= 0.141\ngini = 0.056\nsamples = 244\nvalue = [7, 237]"] ;
1136 -> 1140 ;
1141 [label="X[3] <= 0.137\ngini = 0.086\nsamples = 156\nvalue = [7, 149]"] ;
1140 -> 1141 ;
1142 [label="X[2] <= 0.26\ngini = 0.074\nsamples = 155\nvalue = [6, 149]"] ;
1141 -> 1142 ;
1143 [label="X[3] <= 0.067\ngini = 0.042\nsamples = 94\nvalue = [2, 92]"] ;
1142 -> 1143 ;
1144 [label="X[2] <= 0.164\ngini = 0.024\nsamples = 82\nvalue = [1, 81]"] ;
1143 -> 1144 ;
1145 [label="X[2] <= 0.16\ngini = 0.095\nsamples = 20\nvalue = [1, 19]"] ;
1144 -> 1145 ;
1146 [label="gini = 0.0\nsamples = 18\nvalue = [0, 18]"] ;
1145 -> 1146 ;
1147 [label="X[11] <= 0.0\ngini = 0.5\nsamples = 2\nvalue = [1, 1]"] ;
1145 -> 1147 ;
1148 [label="gini = 0.0\nsamples = 1\nvalue = [1, 0]"] ;
1147 -> 1148 ;
1149 [label="gini = 0.0\nsamples = 1\nvalue = [0, 1]"] ;
1147 -> 1149 ;
1150 [label="gini = 0.0\nsamples = 62\nvalue = [0, 62]"] ;
1144 -> 1150 ;
1151 [label="X[0] <= 0.255\ngini = 0.153\nsamples = 12\nvalue = [1, 11]"] ;
1143 -> 1151 ;
1152 [label="gini = 0.0\nsamples = 1\nvalue = [1, 0]"] ;
1151 -> 1152 ;
1153 [label="gini = 0.0\nsamples = 11\nvalue = [0, 11]"] ;
1151 -> 1153 ;
1154 [label="X[2] <= 0.268\ngini = 0.123\nsamples = 61\nvalue = [4, 57]"] ;
1142 -> 1154 ;
1155 [label="gini = 0.0\nsamples = 2\nvalue = [2, 0]"] ;
1154 -> 1155 ;
1156 [label="X[1] <= 0.074\ngini = 0.065\nsamples = 59\nvalue = [2, 57]"] ;
1154 -> 1156 ;
1157 [label="X[1] <= 0.07\ngini = 0.208\nsamples = 17\nvalue = [2, 15]"] ;
1156 -> 1157 ;
1158 [label="X[5] <= 0.0\ngini = 0.117\nsamples = 16\nvalue = [1, 15]"] ;
1157 -> 1158 ;
1159 [label="X[0] <= 0.244\ngini = 0.32\nsamples = 5\nvalue = [1, 4]"] ;
1158 -> 1159 ;
1160 [label="gini = 0.0\nsamples = 3\nvalue = [0, 3]"] ;
1159 -> 1160 ;
1161 [label="X[0] <= 0.288\ngini = 0.5\nsamples = 2\nvalue = [1, 1]"] ;
1159 -> 1161 ;
1162 [label="gini = 0.0\nsamples = 1\nvalue = [1, 0]"] ;
1161 -> 1162 ;
1163 [label="gini = 0.0\nsamples = 1\nvalue = [0, 1]"] ;
1161 -> 1163 ;
1164 [label="gini = 0.0\nsamples = 11\nvalue = [0, 11]"] ;
1158 -> 1164 ;
1165 [label="gini = 0.0\nsamples = 1\nvalue = [1, 0]"] ;
1157 -> 1165 ;
1166 [label="gini = 0.0\nsamples = 42\nvalue = [0, 42]"] ;
1156 -> 1166 ;
1167 [label="gini = 0.0\nsamples = 1\nvalue = [1, 0]"] ;
1141 -> 1167 ;
1168 [label="gini = 0.0\nsamples = 88\nvalue = [0, 88]"] ;
1140 -> 1168 ;
1169 [label="X[2] <= 0.322\ngini = 0.375\nsamples = 20\nvalue = [5, 15]"] ;
1133 -> 1169 ;
1170 [label="X[1] <= 0.017\ngini = 0.278\nsamples = 18\nvalue = [3, 15]"] ;
1169 -> 1170 ;
1171 [label="X[0] <= 0.095\ngini = 0.49\nsamples = 7\nvalue = [3, 4]"] ;
1170 -> 1171 ;
1172 [label="gini = 0.0\nsamples = 2\nvalue = [0, 2]"] ;
1171 -> 1172 ;
1173 [label="X[0] <= 0.151\ngini = 0.48\nsamples = 5\nvalue = [3, 2]"] ;
1171 -> 1173 ;
1174 [label="gini = 0.0\nsamples = 2\nvalue = [2, 0]"] ;
1173 -> 1174 ;
1175 [label="X[0] <= 0.19\ngini = 0.444\nsamples = 3\nvalue = [1, 2]"] ;
1173 -> 1175 ;
1176 [label="gini = 0.0\nsamples = 1\nvalue = [0, 1]"] ;
1175 -> 1176 ;
1177 [label="X[12] <= 0.987\ngini = 0.5\nsamples = 2\nvalue = [1, 1]"] ;
1175 -> 1177 ;
1178 [label="gini = 0.0\nsamples = 1\nvalue = [0, 1]"] ;
1177 -> 1178 ;
1179 [label="gini = 0.0\nsamples = 1\nvalue = [1, 0]"] ;
1177 -> 1179 ;
1180 [label="gini = 0.0\nsamples = 11\nvalue = [0, 11]"] ;
1170 -> 1180 ;
1181 [label="gini = 0.0\nsamples = 2\nvalue = [2, 0]"] ;
1169 -> 1181 ;
1182 [label="X[24] <= 0.143\ngini = 0.329\nsamples = 53\nvalue = [11, 42]"] ;
1132 -> 1182 ;
1183 [label="X[2] <= 0.277\ngini = 0.42\nsamples = 10\nvalue = [7, 3]"] ;
1182 -> 1183 ;
1184 [label="X[3] <= 0.212\ngini = 0.219\nsamples = 8\nvalue = [7, 1]"] ;
1183 -> 1184 ;
1185 [label="gini = 0.0\nsamples = 7\nvalue = [7, 0]"] ;
1184 -> 1185 ;
1186 [label="gini = 0.0\nsamples = 1\nvalue = [0, 1]"] ;
1184 -> 1186 ;
1187 [label="gini = 0.0\nsamples = 2\nvalue = [0, 2]"] ;
1183 -> 1187 ;
1188 [label="X[2] <= 0.086\ngini = 0.169\nsamples = 43\nvalue = [4, 39]"] ;
1182 -> 1188 ;
1189 [label="gini = 0.0\nsamples = 2\nvalue = [2, 0]"] ;
1188 -> 1189 ;
1190 [label="X[7] <= -0.25\ngini = 0.093\nsamples = 41\nvalue = [2, 39]"] ;
1188 -> 1190 ;
1191 [label="X[3] <= 0.013\ngini = 0.26\nsamples = 13\nvalue = [2, 11]"] ;
1190 -> 1191 ;
1192 [label="gini = 0.0\nsamples = 6\nvalue = [0, 6]"] ;
1191 -> 1192 ;
1193 [label="X[3] <= 0.035\ngini = 0.408\nsamples = 7\nvalue = [2, 5]"] ;
1191 -> 1193 ;
1194 [label="gini = 0.0\nsamples = 1\nvalue = [1, 0]"] ;
1193 -> 1194 ;
1195 [label="X[24] <= 0.414\ngini = 0.278\nsamples = 6\nvalue = [1, 5]"] ;
1193 -> 1195 ;
1196 [label="X[3] <= 0.172\ngini = 0.5\nsamples = 2\nvalue = [1, 1]"] ;
1195 -> 1196 ;
1197 [label="gini = 0.0\nsamples = 1\nvalue = [1, 0]"] ;
1196 -> 1197 ;
1198 [label="gini = 0.0\nsamples = 1\nvalue = [0, 1]"] ;
1196 -> 1198 ;
1199 [label="gini = 0.0\nsamples = 4\nvalue = [0, 4]"] ;
1195 -> 1199 ;
1200 [label="gini = 0.0\nsamples = 28\nvalue = [0, 28]"] ;
1190 -> 1200 ;
1201 [label="X[3] <= 0.04\ngini = 0.035\nsamples = 728\nvalue = [13, 715]"] ;
1119 -> 1201 ;
1202 [label="X[2] <= 0.38\ngini = 0.053\nsamples = 406\nvalue = [11, 395]"] ;
1201 -> 1202 ;
1203 [label="X[3] <= 0.03\ngini = 0.048\nsamples = 405\nvalue = [10, 395]"] ;
1202 -> 1203 ;
1204 [label="X[21] <= 0.8\ngini = 0.037\nsamples = 369\nvalue = [7, 362]"] ;
1203 -> 1204 ;
1205 [label="X[0] <= 0.081\ngini = 0.219\nsamples = 8\nvalue = [1, 7]"] ;
1204 -> 1205 ;
1206 [label="gini = 0.0\nsamples = 1\nvalue = [1, 0]"] ;
1205 -> 1206 ;
1207 [label="gini = 0.0\nsamples = 7\nvalue = [0, 7]"] ;
1205 -> 1207 ;
1208 [label="X[2] <= 0.17\ngini = 0.033\nsamples = 361\nvalue = [6, 355]"] ;
1204 -> 1208 ;
1209 [label="X[0] <= 0.204\ngini = 0.051\nsamples = 192\nvalue = [5, 187]"] ;
1208 -> 1209 ;
1210 [label="X[2] <= 0.165\ngini = 0.025\nsamples = 159\nvalue = [2, 157]"] ;
1209 -> 1210 ;
1211 [label="X[0] <= 0.025\ngini = 0.013\nsamples = 148\nvalue = [1, 147]"] ;
1210 -> 1211 ;
1212 [label="X[2] <= 0.118\ngini = 0.071\nsamples = 27\nvalue = [1, 26]"] ;
1211 -> 1212 ;
1213 [label="gini = 0.0\nsamples = 26\nvalue = [0, 26]"] ;
1212 -> 1213 ;
1214 [label="gini = 0.0\nsamples = 1\nvalue = [1, 0]"] ;
1212 -> 1214 ;
1215 [label="gini = 0.0\nsamples = 121\nvalue = [0, 121]"] ;
1211 -> 1215 ;
1216 [label="X[0] <= 0.132\ngini = 0.165\nsamples = 11\nvalue = [1, 10]"] ;
1210 -> 1216 ;
1217 [label="gini = 0.0\nsamples = 1\nvalue = [1, 0]"] ;
1216 -> 1217 ;
1218 [label="gini = 0.0\nsamples = 10\nvalue = [0, 10]"] ;
1216 -> 1218 ;
1219 [label="X[0] <= 0.207\ngini = 0.165\nsamples = 33\nvalue = [3, 30]"] ;
1209 -> 1219 ;
1220 [label="gini = 0.0\nsamples = 1\nvalue = [1, 0]"] ;
1219 -> 1220 ;
1221 [label="X[2] <= 0.072\ngini = 0.117\nsamples = 32\nvalue = [2, 30]"] ;
1219 -> 1221 ;
1222 [label="X[0] <= 0.216\ngini = 0.375\nsamples = 4\nvalue = [1, 3]"] ;
1221 -> 1222 ;
1223 [label="gini = 0.0\nsamples = 1\nvalue = [1, 0]"] ;
1222 -> 1223 ;
1224 [label="gini = 0.0\nsamples = 3\nvalue = [0, 3]"] ;
1222 -> 1224 ;
1225 [label="X[2] <= 0.162\ngini = 0.069\nsamples = 28\nvalue = [1, 27]"] ;
1221 -> 1225 ;
1226 [label="gini = 0.0\nsamples = 22\nvalue = [0, 22]"] ;
1225 -> 1226 ;
1227 [label="X[0] <= 0.238\ngini = 0.278\nsamples = 6\nvalue = [1, 5]"] ;
1225 -> 1227 ;
1228 [label="X[3] <= 0.015\ngini = 0.5\nsamples = 2\nvalue = [1, 1]"] ;
1227 -> 1228 ;
1229 [label="gini = 0.0\nsamples = 1\nvalue = [1, 0]"] ;
1228 -> 1229 ;
1230 [label="gini = 0.0\nsamples = 1\nvalue = [0, 1]"] ;
1228 -> 1230 ;
1231 [label="gini = 0.0\nsamples = 4\nvalue = [0, 4]"] ;
1227 -> 1231 ;
1232 [label="X[0] <= 0.156\ngini = 0.012\nsamples = 169\nvalue = [1, 168]"] ;
1208 -> 1232 ;
1233 [label="X[0] <= 0.155\ngini = 0.062\nsamples = 31\nvalue = [1, 30]"] ;
1232 -> 1233 ;
1234 [label="gini = 0.0\nsamples = 30\nvalue = [0, 30]"] ;
1233 -> 1234 ;
1235 [label="gini = 0.0\nsamples = 1\nvalue = [1, 0]"] ;
1233 -> 1235 ;
1236 [label="gini = 0.0\nsamples = 138\nvalue = [0, 138]"] ;
1232 -> 1236 ;
1237 [label="X[0] <= 0.271\ngini = 0.153\nsamples = 36\nvalue = [3, 33]"] ;
1203 -> 1237 ;
1238 [label="X[2] <= 0.207\ngini = 0.069\nsamples = 28\nvalue = [1, 27]"] ;
1237 -> 1238 ;
1239 [label="gini = 0.0\nsamples = 23\nvalue = [0, 23]"] ;
1238 -> 1239 ;
1240 [label="X[0] <= 0.203\ngini = 0.32\nsamples = 5\nvalue = [1, 4]"] ;
1238 -> 1240 ;
1241 [label="gini = 0.0\nsamples = 1\nvalue = [1, 0]"] ;
1240 -> 1241 ;
1242 [label="gini = 0.0\nsamples = 4\nvalue = [0, 4]"] ;
1240 -> 1242 ;
1243 [label="X[1] <= 0.035\ngini = 0.375\nsamples = 8\nvalue = [2, 6]"] ;
1237 -> 1243 ;
1244 [label="gini = 0.0\nsamples = 5\nvalue = [0, 5]"] ;
1243 -> 1244 ;
1245 [label="X[3] <= 0.036\ngini = 0.444\nsamples = 3\nvalue = [2, 1]"] ;
1243 -> 1245 ;
1246 [label="gini = 0.0\nsamples = 2\nvalue = [2, 0]"] ;
1245 -> 1246 ;
1247 [label="gini = 0.0\nsamples = 1\nvalue = [0, 1]"] ;
1245 -> 1247 ;
1248 [label="gini = 0.0\nsamples = 1\nvalue = [1, 0]"] ;
1202 -> 1248 ;
1249 [label="X[0] <= 0.567\ngini = 0.012\nsamples = 322\nvalue = [2, 320]"] ;
1201 -> 1249 ;
1250 [label="X[2] <= 0.181\ngini = 0.006\nsamples = 310\nvalue = [1, 309]"] ;
1249 -> 1250 ;
1251 [label="X[2] <= 0.18\ngini = 0.037\nsamples = 53\nvalue = [1, 52]"] ;
1250 -> 1251 ;
1252 [label="gini = 0.0\nsamples = 52\nvalue = [0, 52]"] ;
1251 -> 1252 ;
1253 [label="gini = 0.0\nsamples = 1\nvalue = [1, 0]"] ;
1251 -> 1253 ;
1254 [label="gini = 0.0\nsamples = 257\nvalue = [0, 257]"] ;
1250 -> 1254 ;
1255 [label="X[0] <= 0.581\ngini = 0.153\nsamples = 12\nvalue = [1, 11]"] ;
1249 -> 1255 ;
1256 [label="gini = 0.0\nsamples = 1\nvalue = [1, 0]"] ;
1255 -> 1256 ;
1257 [label="gini = 0.0\nsamples = 11\nvalue = [0, 11]"] ;
1255 -> 1257 ;
1258 [label="gini = 0.0\nsamples = 1\nvalue = [1, 0]"] ;
1118 -> 1258 ;
1259 [label="X[22] <= 0.636\ngini = 0.287\nsamples = 75\nvalue = [13, 62]"] ;
1117 -> 1259 ;
1260 [label="X[8] <= -0.5\ngini = 0.245\nsamples = 7\nvalue = [6, 1]"] ;
1259 -> 1260 ;
1261 [label="gini = 0.0\nsamples = 1\nvalue = [0, 1]"] ;
1260 -> 1261 ;
1262 [label="gini = 0.0\nsamples = 6\nvalue = [6, 0]"] ;
1260 -> 1262 ;
1263 [label="X[20] <= 0.955\ngini = 0.185\nsamples = 68\nvalue = [7, 61]"] ;
1259 -> 1263 ;
1264 [label="gini = 0.0\nsamples = 1\nvalue = [1, 0]"] ;
1263 -> 1264 ;
1265 [label="X[15] <= 0.938\ngini = 0.163\nsamples = 67\nvalue = [6, 61]"] ;
1263 -> 1265 ;
